<?xml version="1.0" encoding="ISO-8859-1"?>
<smile version="1.0" id="Sub0" numsamples="1000" discsamples="10000">
	<nodes>
		<cpt id="Fault">
			<state id="AIDS_early" />
			<state id="AILD" />
			<state id="ALIP" />
			<state id="Cat_scratch_disease" />
			<state id="Dermatopathic_laden" />
			<state id="Florid_follic_hyperp" />
			<state id="GLH_hyaline_vacular" />
			<state id="GLH_plasma_cell_type" />
			<state id="Granulomatous_laden" />
			<state id="Histiocytosis_x" />
			<state id="Infectious_mono" />
			<state id="Leprosy" />
			<state id="Lymphangiographic" />
			<state id="Mantle_zone_hyperl" />
			<state id="Necrotizing_kikuchi" />
			<state id="Necrotiz_nonKikuchi" />
			<state id="Rheumatoid_arthritis" />
			<state id="Sarcoidosis" />
			<state id="SHML" />
			<state id="Sinus_hyperplasia" />
			<state id="Syphilis" />
			<state id="Toxoplasmosis" />
			<state id="Tuberculosis" />
			<state id="Viral_NOS" />
			<state id="Whipple_s_disease" />
			<state id="L_H_nodular_HD" />
			<state id="L_H_diffuse_HD" />
			<state id="Nodular_sclerosis" />
			<state id="Cellular_phase_NSHD" />
			<state id="Syncytial_NSHD" />
			<state id="Mixed_cellularity_HD" />
			<state id="Interfollicular_HD" />
			<state id="Diffuse_fibrosis_HD" />
			<state id="Reticular_type_HD" />
			<state id="Small_cleaved__fol" />
			<state id="Mixed__fol" />
			<state id="Large_cell__fol" />
			<state id="Small_noncleaved_fol" />
			<state id="Small_lymphocytic" />
			<state id="Plasmacytoid_lyctic" />
			<state id="Mantle_zone" />
			<state id="Small_cleaved__dif" />
			<state id="Mixed__fcc_dif" />
			<state id="Large_cell__dif" />
			<state id="B_immunoblastic" />
			<state id="T_immunob_mix" />
			<state id="IBL_like_T_cell_lym" />
			<state id="Japanese_ATL" />
			<state id="Lymphoblastic" />
			<state id="Small_noncleaved_dif" />
			<state id="True_histiocytic" />
			<state id="Malig_histiocytosis" />
			<state id="Multiple_myeloma" />
			<state id="Mycosis_fungoides" />
			<state id="AML" />
			<state id="Hairy_cell_leukemia" />
			<state id="Carcinoma" />
			<state id="Melanoma" />
			<state id="Em_plasmacytoma" />
			<state id="Kaposis_sarcoma" />
			<state id="Mast_cell_disease" />
			<state id="AIDS_involutionary" />
			<state id="T_immunob_lrg" />
			<probabilities>0.02075118937746431 0.001037559968873201 0.01037559968873201 0.003631459891056202 0.01037559968873201 0.03112678906619632 0.004357749869267503 0.002075119937746402 0.01556338953309831 0.004150239875492803 0.007262919782112405 0.006225359813239204 0.01037559968873201 0.01296949961091501 0.008300479750985607 0.01328075960157721 0.002075119937746402 0.002075119937746402 0.001245069962647901 0.01556338953309831 0.002593899922183002 0.007262919782112405 0.008300479750985607 0.01037559968873201 0.002075119937746402 0.01037559968873201 0.004150239875492803 0.08300476750985696 0.005187799844366003 0.004150239875492803 0.05187797844366063 0.004150239875492803 0.005187799844366003 0.005187799844366003 0.103755966887321 0.05706577828802664 0.03112678906619632 0.005187799844366003 0.02075118937746431 0.01037559968873201 0.01037559968873201 0.004150239875492803 0.01037559968873201 0.1348827459535176 0.01556338953309831 0.02075118937746431 0.01556338953309831 0.001037559968873201 0.01037559968873201 0.06225357813239264 0.001660099950197001 0.001660099950197001 0.002075119937746402 0.006225359813239204 0.002593899922183002 0.0002075099937747001 0.02075118937746431 0.008300479750985607 0.003320189900394302 0.008300479750985607 0.003112679906619602 0.02075118937746431 0.02075118937746431</probabilities>
		</cpt>
		<cpt id="F1">
			<state id="Absent" />
			<state id="Present" />
			<parents>Fault</parents>
			<probabilities>1 0 1 0 1 0 1 0 1 0 1 0 1 0 1 0 1 0 1 0 1 0 1 0 1 0 1 0 1 0 1 0 1 0 1 0 1 0 1 0 1 0 1 0 0.1 0.9 1 0 1 0 1 0 1 0 1 0 1 0 1 0 1 0 1 0 1 0 1 0 1 0 1 0 1 0 1 0 1 0 1 0 1 0 1 0 1 0 1 0 1 0 1 0 1 0 1 0 1 0 1 0 1 0 1 0 1 0 1 0 1 0 1 0 1 0 1 0 1 0 1 0 1 0 1 0 1 0</probabilities>
		</cpt>
		<cpt id="F97">
			<state id="Absent" />
			<state id="Present" />
			<parents>Fault</parents>
			<probabilities>0 1 0.99 0.01 0.9 0.1 0.01 0.99 0.01 0.99 0 1 0 1 0 1 0.01 0.99 0.01 0.99 0.01 0.99 0.9 0.1 0.01 0.99 0 1 0.01 0.99 0.01 0.99 0 1 0.9 0.1 0.01 0.99 0.01 0.99 0 1 0 1 0.9 0.1 0.01 0.99 0.01 0.99 0.99 0.01 0.99 0.01 0.8 0.2 0.8 0.2 0.8 0.2 0.8 0.2 0 1 0.999 0.001 0.999 0.001 0 1 0 1 0 1 0 1 0.95 0.05 0.999 0.001 0.01 0.99 0.999 0.001 0.999 0.001 0.999 0.001 0.999 0.001 0.8 0.2 0.999 0.001 0.999 0.001 0.95 0.05 0.999 0.001 0.999 0.001 0.999 0.001 0.2 0.8 0.2 0.8 0.2 0.8 0.2 0.8 0.2 0.8 0.2 0.8 0.99 0.01 0.99 0.01 0.99 0.01 0.05 0.95 0.999 0.001</probabilities>
		</cpt>
		<cpt id="F2">
			<state id="NA" />
			<state id="No" />
			<state id="Yes" />
			<parents>Fault F97</parents>
			<probabilities>1 0 0 0 0.99 0.01 1 0 0 0 0.3 0.7 1 0 0 0 0.99 0.01 1 0 0 0 0.99 0.01 1 0 0 0 0.99 0.01 1 0 0 0 0.99 0.01 1 0 0 0 0 1 1 0 0 0 0.99 0.01 1 0 0 0 0.99 0.01 1 0 0 0 0.99 0.01 1 0 0 0 0.99 0.01 1 0 0 0 0.99 0.01 1 0 0 0 0.99 0.01 1 0 0 0 0.05 0.95 1 0 0 0 0.99 0.01 1 0 0 0 0.99 0.01 1 0 0 0 0.99 0.01 1 0 0 0 0.99 0.01 1 0 0 0 0.99 0.01 1 0 0 0 0.99 0.01 1 0 0 0 0.99 0.01 1 0 0 0 0.99 0.01 1 0 0 0 0.99 0.01 1 0 0 0 0.99 0.01 1 0 0 0 0.99 0.01 1 0 0 0 0.99 0.01 1 0 0 0 0.99 0.01 1 0 0 0 0.99 0.01 1 0 0 0 0.99 0.01 1 0 0 0 0.99 0.01 1 0 0 0 0.99 0.01 1 0 0 0 0.99 0.01 1 0 0 0 0.99 0.01 1 0 0 0 0.99 0.01 1 0 0 0 0.9999900000000001 1e-005 1 0 0 0 0.9999900000000001 1e-005 1 0 0 0 0.9999900000000001 1e-005 1 0 0 0 0.9999900000000001 1e-005 1 0 0 0 0.99 0.01 1 0 0 0 0.99 0.01 1 0 0 0 0.01 0.99 1 0 0 0 0.99 0.01 1 0 0 0 0.99 0.01 1 0 0 0 0.99 0.01 1 0 0 0 0.99 0.01 1 0 0 0 0.99 0.01 1 0 0 0 0.3 0.7 1 0 0 0 0.99 0.01 1 0 0 0 0.99 0.01 1 0 0 0 0.99 0.01 1 0 0 0 0.99 0.01 1 0 0 0 0.99 0.01 1 0 0 0 0.99 0.01 1 0 0 0 0.99 0.01 1 0 0 0 0.99 0.01 1 0 0 0 0.99 0.01 1 0 0 0 0.99 0.01 1 0 0 0 0.99 0.01 1 0 0 0 0.99 0.01 1 0 0 0 0.01 0.99 1 0 0 0 0.99 0.01 1 0 0 0 0.01 0.99 1 0 0 0 0.99 0.01</probabilities>
		</cpt>
		<cpt id="F78">
			<state id="NA" />
			<state id="No" />
			<state id="Yes" />
			<parents>Fault F97</parents>
			<probabilities>1 0 0 0 0.65 0.35 1 0 0 0 0.999 0.001 1 0 0 0 0.999 0.001 1 0 0 0 0.999 0.001 1 0 0 0 0.999 0.001 1 0 0 0 0.98 0.02 1 0 0 0 0.999 0.001 1 0 0 0 0.999 0.001 1 0 0 0 0.999 0.001 1 0 0 0 0.999 0.001 1 0 0 0 0.999 0.001 1 0 0 0 0.999 0.001 1 0 0 0 0.999 0.001 1 0 0 0 0.999 0.001 1 0 0 0 0.999 0.001 1 0 0 0 0.999 0.001 1 0 0 0 0.999 0.001 1 0 0 0 0.999 0.001 1 0 0 0 0.999 0.001 1 0 0 0 0.999 0.001 1 0 0 0 0.999 0.001 1 0 0 0 0.999 0.001 1 0 0 0 0.999 0.001 1 0 0 0 0.999 0.001 1 0 0 0 0.999 0.001 1 0 0 0 0.999 0.001 1 0 0 0 0.999 0.001 1 0 0 0 0.999 0.001 1 0 0 0 0.999 0.001 1 0 0 0 0.999 0.001 1 0 0 0 0.999 0.001 1 0 0 0 0.999 0.001 1 0 0 0 0.999 0.001 1 0 0 0 0.999 0.001 1 0 0 0 0.999 0.001 1 0 0 0 0.999 0.001 1 0 0 0 0.999 0.001 1 0 0 0 0.999 0.001 1 0 0 0 0.999 0.001 1 0 0 0 0.999 0.001 1 0 0 0 0.999 0.001 1 0 0 0 0.999 0.001 1 0 0 0 0.999 0.001 1 0 0 0 0.999 0.001 1 0 0 0 0.999 0.001 1 0 0 0 0.999 0.001 1 0 0 0 0.999 0.001 1 0 0 0 0.999 0.001 1 0 0 0 0.999 0.001 1 0 0 0 0.999 0.001 1 0 0 0 0.999 0.001 1 0 0 0 0.999 0.001 1 0 0 0 0.999 0.001 1 0 0 0 0.999 0.001 1 0 0 0 0.999 0.001 1 0 0 0 0.999 0.001 1 0 0 0 0.999 0.001 1 0 0 0 0.999 0.001 1 0 0 0 0.999 0.001 1 0 0 0 0.999 0.001 1 0 0 0 0.999 0.001 1 0 0 0 0.9 0.1 1 0 0 0 0.999 0.001</probabilities>
		</cpt>
		<cpt id="F3">
			<state id="NA" />
			<state id="No" />
			<state id="Yes" />
			<parents>Fault F97 F78</parents>
			<probabilities>1 0 0 1 0 0 1 0 0 1 0 0 0 0.8 0.2 0 0.7 0.3 1 0 0 1 0 0 1 0 0 1 0 0 0 0.999900009999 9.999000099989999e-005 0 0.999900009999 9.999000099989999e-005 1 0 0 1 0 0 1 0 0 1 0 0 0 0.999900009999 9.999000099989999e-005 0 0.999900009999 9.999000099989999e-005 1 0 0 1 0 0 1 0 0 1 0 0 0 0.999900009999 9.999000099989999e-005 0 0.999900009999 9.999000099989999e-005 1 0 0 1 0 0 1 0 0 1 0 0 0 0.999900009999 9.999000099989999e-005 0 0.999900009999 9.999000099989999e-005 1 0 0 1 0 0 1 0 0 1 0 0 0 0.95 0.05 0 0.9 0.1 1 0 0 1 0 0 1 0 0 1 0 0 0 0.999900009999 9.999000099989999e-005 0 0.999900009999 9.999000099989999e-005 1 0 0 1 0 0 1 0 0 1 0 0 0 0.999900009999 9.999000099989999e-005 0 0.999900009999 9.999000099989999e-005 1 0 0 1 0 0 1 0 0 1 0 0 0 0.999900009999 9.999000099989999e-005 0 0.999900009999 9.999000099989999e-005 1 0 0 1 0 0 1 0 0 1 0 0 0 0.999900009999 9.999000099989999e-005 0 0.999900009999 9.999000099989999e-005 1 0 0 1 0 0 1 0 0 1 0 0 0 0.999900009999 9.999000099989999e-005 0 0.999900009999 9.999000099989999e-005 1 0 0 1 0 0 1 0 0 1 0 0 0 0.999900009999 9.999000099989999e-005 0 0.999900009999 9.999000099989999e-005 1 0 0 1 0 0 1 0 0 1 0 0 0 0.999900009999 9.999000099989999e-005 0 0.999900009999 9.999000099989999e-005 1 0 0 1 0 0 1 0 0 1 0 0 0 0.999900009999 9.999000099989999e-005 0 0.999900009999 9.999000099989999e-005 1 0 0 1 0 0 1 0 0 1 0 0 0 0.999900009999 9.999000099989999e-005 0 0.999900009999 9.999000099989999e-005 1 0 0 1 0 0 1 0 0 1 0 0 0 0.999900009999 9.999000099989999e-005 0 0.999900009999 9.999000099989999e-005 1 0 0 1 0 0 1 0 0 1 0 0 0 0.999900009999 9.999000099989999e-005 0 0.999900009999 9.999000099989999e-005 1 0 0 1 0 0 1 0 0 1 0 0 0 0.999900009999 9.999000099989999e-005 0 0.999900009999 9.999000099989999e-005 1 0 0 1 0 0 1 0 0 1 0 0 0 0.999900009999 9.999000099989999e-005 0 0.999900009999 9.999000099989999e-005 1 0 0 1 0 0 1 0 0 1 0 0 0 0.999900009999 9.999000099989999e-005 0 0.999900009999 9.999000099989999e-005 1 0 0 1 0 0 1 0 0 1 0 0 0 0.999900009999 9.999000099989999e-005 0 0.999900009999 9.999000099989999e-005 1 0 0 1 0 0 1 0 0 1 0 0 0 0.999900009999 9.999000099989999e-005 0 0.999900009999 9.999000099989999e-005 1 0 0 1 0 0 1 0 0 1 0 0 0 0.999900009999 9.999000099989999e-005 0 0.999900009999 9.999000099989999e-005 1 0 0 1 0 0 1 0 0 1 0 0 0 0.999900009999 9.999000099989999e-005 0 0.999900009999 9.999000099989999e-005 1 0 0 1 0 0 1 0 0 1 0 0 0 0.999900009999 9.999000099989999e-005 0 0.999900009999 9.999000099989999e-005 1 0 0 1 0 0 1 0 0 1 0 0 0 0.999900009999 9.999000099989999e-005 0 0.999900009999 9.999000099989999e-005 1 0 0 1 0 0 1 0 0 1 0 0 0 0.999900009999 9.999000099989999e-005 0 0.999900009999 9.999000099989999e-005 1 0 0 1 0 0 1 0 0 1 0 0 0 0.999900009999 9.999000099989999e-005 0 0.999900009999 9.999000099989999e-005 1 0 0 1 0 0 1 0 0 1 0 0 0 0.999900009999 9.999000099989999e-005 0 0.999900009999 9.999000099989999e-005 1 0 0 1 0 0 1 0 0 1 0 0 0 0.999900009999 9.999000099989999e-005 0 0.999900009999 9.999000099989999e-005 1 0 0 1 0 0 1 0 0 1 0 0 0 0.999900009999 9.999000099989999e-005 0 0.999900009999 9.999000099989999e-005 1 0 0 1 0 0 1 0 0 1 0 0 0 0.999900009999 9.999000099989999e-005 0 0.999900009999 9.999000099989999e-005 1 0 0 1 0 0 1 0 0 1 0 0 0 0.999900009999 9.999000099989999e-005 0 0.999900009999 9.999000099989999e-005 1 0 0 1 0 0 1 0 0 1 0 0 0 0.999900009999 9.999000099989999e-005 0 0.999900009999 9.999000099989999e-005 1 0 0 1 0 0 1 0 0 1 0 0 0 0.999900009999 9.999000099989999e-005 0 0.999900009999 9.999000099989999e-005 1 0 0 1 0 0 1 0 0 1 0 0 0 0.999900009999 9.999000099989999e-005 0 0.999900009999 9.999000099989999e-005 1 0 0 1 0 0 1 0 0 1 0 0 0 0.999900009999 9.999000099989999e-005 0 0.999900009999 9.999000099989999e-005 1 0 0 1 0 0 1 0 0 1 0 0 0 0.999900009999 9.999000099989999e-005 0 0.999900009999 9.999000099989999e-005 1 0 0 1 0 0 1 0 0 1 0 0 0 0.999900009999 9.999000099989999e-005 0 0.999900009999 9.999000099989999e-005 1 0 0 1 0 0 1 0 0 1 0 0 0 0.999900009999 9.999000099989999e-005 0 0.999900009999 9.999000099989999e-005 1 0 0 1 0 0 1 0 0 1 0 0 0 0.999900009999 9.999000099989999e-005 0 0.999900009999 9.999000099989999e-005 1 0 0 1 0 0 1 0 0 1 0 0 0 0.999900009999 9.999000099989999e-005 0 0.999900009999 9.999000099989999e-005 1 0 0 1 0 0 1 0 0 1 0 0 0 0.999900009999 9.999000099989999e-005 0 0.999900009999 9.999000099989999e-005 1 0 0 1 0 0 1 0 0 1 0 0 0 0.999900009999 9.999000099989999e-005 0 0.999900009999 9.999000099989999e-005 1 0 0 1 0 0 1 0 0 1 0 0 0 0.999900009999 9.999000099989999e-005 0 0.999900009999 9.999000099989999e-005 1 0 0 1 0 0 1 0 0 1 0 0 0 0.999900009999 9.999000099989999e-005 0 0.999900009999 9.999000099989999e-005 1 0 0 1 0 0 1 0 0 1 0 0 0 0.999900009999 9.999000099989999e-005 0 0.999900009999 9.999000099989999e-005 1 0 0 1 0 0 1 0 0 1 0 0 0 0.999900009999 9.999000099989999e-005 0 0.999900009999 9.999000099989999e-005 1 0 0 1 0 0 1 0 0 1 0 0 0 0.999900009999 9.999000099989999e-005 0 0.999900009999 9.999000099989999e-005 1 0 0 1 0 0 1 0 0 1 0 0 0 0.999900009999 9.999000099989999e-005 0 0.999900009999 9.999000099989999e-005 1 0 0 1 0 0 1 0 0 1 0 0 0 0.999900009999 9.999000099989999e-005 0 0.999900009999 9.999000099989999e-005 1 0 0 1 0 0 1 0 0 1 0 0 0 0.999900009999 9.999000099989999e-005 0 0.999900009999 9.999000099989999e-005 1 0 0 1 0 0 1 0 0 1 0 0 0 0.999900009999 9.999000099989999e-005 0 0.999900009999 9.999000099989999e-005 1 0 0 1 0 0 1 0 0 1 0 0 0 0.999900009999 9.999000099989999e-005 0 0.999900009999 9.999000099989999e-005 1 0 0 1 0 0 1 0 0 1 0 0 0 0.999900009999 9.999000099989999e-005 0 0.999900009999 9.999000099989999e-005 1 0 0 1 0 0 1 0 0 1 0 0 0 0.999900009999 9.999000099989999e-005 0 0.999900009999 9.999000099989999e-005 1 0 0 1 0 0 1 0 0 1 0 0 0 0.999900009999 9.999000099989999e-005 0 0.999900009999 9.999000099989999e-005 1 0 0 1 0 0 1 0 0 1 0 0 0 0.999900009999 9.999000099989999e-005 0 0.999900009999 9.999000099989999e-005 1 0 0 1 0 0 1 0 0 1 0 0 0 0.999900009999 9.999000099989999e-005 0 0.999900009999 9.999000099989999e-005 1 0 0 1 0 0 1 0 0 1 0 0 0 0.999900009999 9.999000099989999e-005 0 0.999900009999 9.999000099989999e-005 1 0 0 1 0 0 1 0 0 1 0 0 0 0.999900009999 9.999000099989999e-005 0 0.999900009999 9.999000099989999e-005 1 0 0 1 0 0 1 0 0 1 0 0 0 0.95 0.05 0 0.9 0.1 1 0 0 1 0 0 1 0 0 1 0 0 0 0.999900009999 9.999000099989999e-005 0 0.999900009999 9.999000099989999e-005</probabilities>
		</cpt>
		<cpt id="F4">
			<state id="NA" />
			<state id="No" />
			<state id="Yes" />
			<parents>Fault F97</parents>
			<probabilities>1 0 0 0 0.01 0.99 1 0 0 0 0.999 0.001 1 0 0 0 0.999 0.001 1 0 0 0 0.9 0.1 1 0 0 0 0.99 0.01 1 0 0 0 0.95 0.05 1 0 0 0 1 0 1 0 0 0 0.8 0.2 1 0 0 0 0.99 0.01 1 0 0 0 0.999 0.001 1 0 0 0 0.9 0.1 1 0 0 0 0.999 0.001 1 0 0 0 0.999 0.001 1 0 0 0 0.98 0.02 1 0 0 0 0.9 0.1 1 0 0 0 0.9 0.1 1 0 0 0 0.8 0.2 1 0 0 0 0.999 0.001 1 0 0 0 0.999 0.001 1 0 0 0 0.999 0.001 1 0 0 0 0.99 0.01 1 0 0 0 0.99 0.01 1 0 0 0 0.999 0.001 1 0 0 0 0.9 0.1 1 0 0 0 0.999 0.001 1 0 0 0 0.999 0.001 1 0 0 0 0.999 0.001 1 0 0 0 0.99 0.01 1 0 0 0 0.99 0.01 1 0 0 0 0.99 0.01 1 0 0 0 0.99 0.01 1 0 0 0 0.99 0.01 1 0 0 0 0.999 0.001 1 0 0 0 0.999 0.001 1 0 0 0 1 0 1 0 0 0 1 0 1 0 0 0 1 0 1 0 0 0 1 0 1 0 0 0 0.9999900000000001 1e-005 1 0 0 0 0.9999900000000001 1e-005 1 0 0 0 0.9 0.1 1 0 0 0 0.9999900000000001 1e-005 1 0 0 0 0.9999900000000001 1e-005 1 0 0 0 0.9999900000000001 1e-005 1 0 0 0 0.9999900000000001 1e-005 1 0 0 0 0.9999900000000001 1e-005 1 0 0 0 0.9999900000000001 1e-005 1 0 0 0 0.9999900000000001 1e-005 1 0 0 0 0.9999900000000001 1e-005 1 0 0 0 0.9999900000000001 1e-005 1 0 0 0 0.9999900000000001 1e-005 1 0 0 0 0.9999900000000001 1e-005 1 0 0 0 0.999 0.001 1 0 0 0 0.999 0.001 1 0 0 0 0.999 0.001 1 0 0 0 0.999 0.001 1 0 0 0 0.999 0.001 1 0 0 0 0.999 0.001 1 0 0 0 0.999 0.001 1 0 0 0 0.8 0.2 1 0 0 0 0.999 0.001 1 0 0 0 0.9 0.1 1 0 0 0 0.9999900000000001 1e-005</probabilities>
		</cpt>
		<cpt id="F5">
			<state id="NA" />
			<state id="None" />
			<state id="One" />
			<state id="More_than_one" />
			<parents>Fault F2 F97</parents>
			<probabilities>1 0 0 0 1 0 0 0 1 0 0 0 0 0.99890011 0.0009999 9.999e-005 1 0 0 0 0 0.98901099 0.009990010000000001 0.0009990000000000001 1 0 0 0 1 0 0 0 1 0 0 0 0 0.99890011 0.0009999 9.999e-005 1 0 0 0 0 0.98901099 0.009990010000000001 0.0009990000000000001 1 0 0 0 1 0 0 0 1 0 0 0 0 0.99890011 0.0009999 9.999e-005 1 0 0 0 0 0.98901099 0.009990010000000001 0.0009990000000000001 1 0 0 0 1 0 0 0 1 0 0 0 0 0.99890011 0.0009999 9.999e-005 1 0 0 0 0 0.98901099 0.009990010000000001 0.0009990000000000001 1 0 0 0 1 0 0 0 1 0 0 0 0 0.99890011 0.0009999 9.999e-005 1 0 0 0 0 0.98901099 0.009990010000000001 0.0009990000000000001 1 0 0 0 1 0 0 0 1 0 0 0 0 0.99890011 0.0009999 9.999e-005 1 0 0 0 0 0.98901099 0.009990010000000001 0.0009990000000000001 1 0 0 0 1 0 0 0 1 0 0 0 0.25 0.25 0.25 0.25 1 0 0 0 0 0.0009990000000000001 0.2997003 0.6993007 1 0 0 0 1 0 0 0 1 0 0 0 0 0.99890011 0.0009999 9.999e-005 1 0 0 0 0 0.98901099 0.009990010000000001 0.0009990000000000001 1 0 0 0 1 0 0 0 1 0 0 0 0 0.99890011 0.0009999 9.999e-005 1 0 0 0 0 0.98901099 0.009990010000000001 0.0009990000000000001 1 0 0 0 1 0 0 0 1 0 0 0 0 0.99890011 0.0009999 9.999e-005 1 0 0 0 0 0.98901099 0.009990010000000001 0.0009990000000000001 1 0 0 0 1 0 0 0 1 0 0 0 0 0.99890011 0.0009999 9.999e-005 1 0 0 0 0 0.98901099 0.009990010000000001 0.0009990000000000001 1 0 0 0 1 0 0 0 1 0 0 0 0 0.99890011 0.0009999 9.999e-005 1 0 0 0 0 0.98901099 0.009990010000000001 0.0009990000000000001 1 0 0 0 1 0 0 0 1 0 0 0 0 0.99890011 0.0009999 9.999e-005 1 0 0 0 0 0.98901099 0.009990010000000001 0.0009990000000000001 1 0 0 0 1 0 0 0 1 0 0 0 0 0.99403578 0.00497018 0.0009940400000000001 1 0 0 0 0 0.94 0.05 0.01 1 0 0 0 1 0 0 0 1 0 0 0 0 0.99890011 0.0009999 9.999e-005 1 0 0 0 0 0.98901099 0.009990010000000001 0.0009990000000000001 1 0 0 0 1 0 0 0 1 0 0 0 0 0.99890011 0.0009999 9.999e-005 1 0 0 0 0 0.98901099 0.009990010000000001 0.0009990000000000001 1 0 0 0 1 0 0 0 1 0 0 0 0 0.99890011 0.0009999 9.999e-005 1 0 0 0 0 0.98901099 0.009990010000000001 0.0009990000000000001 1 0 0 0 1 0 0 0 1 0 0 0 0 0.99890011 0.0009999 9.999e-005 1 0 0 0 0 0.98901099 0.009990010000000001 0.0009990000000000001 1 0 0 0 1 0 0 0 1 0 0 0 0 0.99890011 0.0009999 9.999e-005 1 0 0 0 0 0.98901099 0.009990010000000001 0.0009990000000000001 1 0 0 0 1 0 0 0 1 0 0 0 0 0.99890011 0.0009999 9.999e-005 1 0 0 0 0 0.98901099 0.009990010000000001 0.0009990000000000001 1 0 0 0 1 0 0 0 1 0 0 0 0 0.99890011 0.0009999 9.999e-005 1 0 0 0 0 0.98901099 0.009990010000000001 0.0009990000000000001 1 0 0 0 1 0 0 0 1 0 0 0 0 0.99890011 0.0009999 9.999e-005 1 0 0 0 0 0.98901099 0.009990010000000001 0.0009990000000000001 1 0 0 0 1 0 0 0 1 0 0 0 0 0.99890011 0.0009999 9.999e-005 1 0 0 0 0 0.98901099 0.009990010000000001 0.0009990000000000001 1 0 0 0 1 0 0 0 1 0 0 0 0 0.99890011 0.0009999 9.999e-005 1 0 0 0 0 0.98901099 0.009990010000000001 0.0009990000000000001 1 0 0 0 1 0 0 0 1 0 0 0 0 0.99890011 0.0009999 9.999e-005 1 0 0 0 0 0.98901099 0.009990010000000001 0.0009990000000000001 1 0 0 0 1 0 0 0 1 0 0 0 0 0.99890011 0.0009999 9.999e-005 1 0 0 0 0 0.98901099 0.009990010000000001 0.0009990000000000001 1 0 0 0 1 0 0 0 1 0 0 0 0 0.99890011 0.0009999 9.999e-005 1 0 0 0 0 0.98901099 0.009990010000000001 0.0009990000000000001 1 0 0 0 1 0 0 0 1 0 0 0 0 0.99890011 0.0009999 9.999e-005 1 0 0 0 0 0.98901099 0.009990010000000001 0.0009990000000000001 1 0 0 0 1 0 0 0 1 0 0 0 0 0.99890011 0.0009999 9.999e-005 1 0 0 0 0 0.98901099 0.009990010000000001 0.0009990000000000001 1 0 0 0 1 0 0 0 1 0 0 0 0 0.99890011 0.0009999 9.999e-005 1 0 0 0 0 0.98901099 0.009990010000000001 0.0009990000000000001 1 0 0 0 1 0 0 0 1 0 0 0 0 0.99890011 0.0009999 9.999e-005 1 0 0 0 0 0.98901099 0.009990010000000001 0.0009990000000000001 1 0 0 0 1 0 0 0 1 0 0 0 0 0.99890011 0.0009999 9.999e-005 1 0 0 0 0 0.98901099 0.009990010000000001 0.0009990000000000001 1 0 0 0 1 0 0 0 1 0 0 0 0 0.99890011 0.0009999 9.999e-005 1 0 0 0 0 0.98901099 0.009990010000000001 0.0009990000000000001 1 0 0 0 1 0 0 0 1 0 0 0 0 0.99890011 0.0009999 9.999e-005 1 0 0 0 0 0.98901099 0.009990010000000001 0.0009990000000000001 1 0 0 0 1 0 0 0 1 0 0 0 0 0.9999 0.0001 0 1 0 0 0 0 0.999 0.001 0 1 0 0 0 1 0 0 0 1 0 0 0 0 0.9999 0.0001 0 1 0 0 0 0 0.999 0.001 0 1 0 0 0 1 0 0 0 1 0 0 0 0 0.9999 0.0001 0 1 0 0 0 0 0.999 0.001 0 1 0 0 0 1 0 0 0 1 0 0 0 0 0.9999 0.0001 0 1 0 0 0 0 0.999 0.001 0 1 0 0 0 1 0 0 0 1 0 0 0 0 0.99890011 0.0009999 9.999e-005 1 0 0 0 0 0.98901099 0.009990010000000001 0.0009990000000000001 1 0 0 0 1 0 0 0 1 0 0 0 0 0.99890011 0.0009999 9.999e-005 1 0 0 0 0 0.98901099 0.009990010000000001 0.0009990000000000001 1 0 0 0 1 0 0 0 1 0 0 0 0 0.99890011 0.0009999 9.999e-005 1 0 0 0 0 0.98901099 0.009990010000000001 0.0009990000000000001 1 0 0 0 1 0 0 0 1 0 0 0 0 0.99890011 0.0009999 9.999e-005 1 0 0 0 0 0.98901099 0.009990010000000001 0.0009990000000000001 1 0 0 0 1 0 0 0 1 0 0 0 0 0.99890011 0.0009999 9.999e-005 1 0 0 0 0 0.98901099 0.009990010000000001 0.0009990000000000001 1 0 0 0 1 0 0 0 1 0 0 0 0 0.99890011 0.0009999 9.999e-005 1 0 0 0 0 0.98901099 0.009990010000000001 0.0009990000000000001 1 0 0 0 1 0 0 0 1 0 0 0 0 0.99890011 0.0009999 9.999e-005 1 0 0 0 0 0.98901099 0.009990010000000001 0.0009990000000000001 1 0 0 0 1 0 0 0 1 0 0 0 0 0.99890011 0.0009999 9.999e-005 1 0 0 0 0 0.98901099 0.009990010000000001 0.0009990000000000001 1 0 0 0 1 0 0 0 1 0 0 0 0 0.99890011 0.0009999 9.999e-005 1 0 0 0 0 0.98901099 0.009990010000000001 0.0009990000000000001 1 0 0 0 1 0 0 0 1 0 0 0 0 0.99890011 0.0009999 9.999e-005 1 0 0 0 0 0.98901099 0.009990010000000001 0.0009990000000000001 1 0 0 0 1 0 0 0 1 0 0 0 0 0.99890011 0.0009999 9.999e-005 1 0 0 0 0 0.98901099 0.009990010000000001 0.0009990000000000001 1 0 0 0 1 0 0 0 1 0 0 0 0 0.99890011 0.0009999 9.999e-005 1 0 0 0 0 0.98901099 0.009990010000000001 0.0009990000000000001 1 0 0 0 1 0 0 0 1 0 0 0 0 0.99890011 0.0009999 9.999e-005 1 0 0 0 0 0.98901099 0.009990010000000001 0.0009990000000000001 1 0 0 0 1 0 0 0 1 0 0 0 0 0.99890011 0.0009999 9.999e-005 1 0 0 0 0 0.98901099 0.009990010000000001 0.0009990000000000001 1 0 0 0 1 0 0 0 1 0 0 0 0 0.99890011 0.0009999 9.999e-005 1 0 0 0 0 0.98901099 0.009990010000000001 0.0009990000000000001 1 0 0 0 1 0 0 0 1 0 0 0 0 0.99890011 0.0009999 9.999e-005 1 0 0 0 0 0.98901099 0.009990010000000001 0.0009990000000000001 1 0 0 0 1 0 0 0 1 0 0 0 0 0.99890011 0.0009999 9.999e-005 1 0 0 0 0 0.98901099 0.009990010000000001 0.0009990000000000001 1 0 0 0 1 0 0 0 1 0 0 0 0 0.99890011 0.0009999 9.999e-005 1 0 0 0 0 0.98901099 0.009990010000000001 0.0009990000000000001 1 0 0 0 1 0 0 0 1 0 0 0 0 0.99890011 0.0009999 9.999e-005 1 0 0 0 0 0.98901099 0.009990010000000001 0.0009990000000000001 1 0 0 0 1 0 0 0 1 0 0 0 0 0.99890011 0.0009999 9.999e-005 1 0 0 0 0 0.98901099 0.009990010000000001 0.0009990000000000001 1 0 0 0 1 0 0 0 1 0 0 0 0 0.99890011 0.0009999 9.999e-005 1 0 0 0 0 0.98901099 0.009990010000000001 0.0009990000000000001 1 0 0 0 1 0 0 0 1 0 0 0 0 0.99304866 0.00496524 0.0019861 1 0 0 0 0 0.9300000000000001 0.05 0.02 1 0 0 0 1 0 0 0 1 0 0 0 0 0.99890011 0.0009999 9.999e-005 1 0 0 0 0 0.98901099 0.009990010000000001 0.0009990000000000001 1 0 0 0 1 0 0 0 1 0 0 0 0 0.99304866 0.00496524 0.0019861 1 0 0 0 0 0.9300000000000001 0.05 0.02 1 0 0 0 1 0 0 0 1 0 0 0 0 0.99890011 0.0009999 9.999e-005 1 0 0 0 0 0.98901099 0.009990010000000001 0.0009990000000000001</probabilities>
		</cpt>
		<cpt id="F53">
			<state id="Absent" />
			<state id="Focal__non_extensive_" />
			<state id="Multifocal__non_extensive_" />
			<state id="Extensive" />
			<parents>Fault</parents>
			<probabilities>0.3 0.4 0.29 0.01 0.69993001 0.289971 0.009998999999999999 9.999e-005 0.69993001 0.289971 0.009998999999999999 9.999e-005 0.3 0.4 0.29 0.01 0.05 0.3 0.55 0.1 0.69993001 0.289971 0.009998999999999999 9.999e-005 0.94108421 0.0490148 0.00980296 9.803e-005 0.94108421 0.0490148 0.00980296 9.803e-005 0.5 0.45 0.04 0.01 0.94108421 0.0490148 0.00980296 9.803e-005 0.3 0.4 0.29 0.01 0.3 0.4 0.29 0.01 0.94108421 0.0490148 0.00980296 9.803e-005 0.94108421 0.0490148 0.00980296 9.803e-005 0.5 0.45 0.04 0.01 0.5 0.45 0.04 0.01 0.94108421 0.0490148 0.00980296 9.803e-005 0.94108421 0.0490148 0.00980296 9.803e-005 0.94108421 0.0490148 0.00980296 9.803e-005 0.94108421 0.0490148 0.00980296 9.803e-005 0.69993001 0.289971 0.009998999999999999 9.999e-005 0.94108421 0.0490148 0.00980296 9.803e-005 0.94108421 0.0490148 0.00980296 9.803e-005 0.3 0.4 0.29 0.01 0.94108421 0.0490148 0.00980296 9.803e-005 0.94108421 0.0490148 0.00980296 9.803e-005 0.94108421 0.0490148 0.00980296 9.803e-005 0.94108421 0.0490148 0.00980296 9.803e-005 0.94108421 0.0490148 0.00980296 9.803e-005 0.94108421 0.0490148 0.00980296 9.803e-005 0.94108421 0.0490148 0.00980296 9.803e-005 0.94108421 0.0490148 0.00980296 9.803e-005 0.94108421 0.0490148 0.00980296 9.803e-005 0.94108421 0.0490148 0.00980296 9.803e-005 0.94108421 0.0490148 0.00980296 9.803e-005 0.94108421 0.0490148 0.00980296 9.803e-005 0.94108421 0.0490148 0.00980296 9.803e-005 0.94108421 0.0490148 0.00980296 9.803e-005 0.94108421 0.0490148 0.00980296 9.803e-005 0.94108421 0.0490148 0.00980296 9.803e-005 0.94108421 0.0490148 0.00980296 9.803e-005 0.94108421 0.0490148 0.00980296 9.803e-005 0.94108421 0.0490148 0.00980296 9.803e-005 0.94108421 0.0490148 0.00980296 9.803e-005 0.94108421 0.0490148 0.00980296 9.803e-005 0.94108421 0.0490148 0.00980296 9.803e-005 0.5 0.45 0.04 0.01 0.5 0.45 0.04 0.01 0.94108421 0.0490148 0.00980296 9.803e-005 0.94108421 0.0490148 0.00980296 9.803e-005 0.94108421 0.0490148 0.00980296 9.803e-005 0.94108421 0.0490148 0.00980296 9.803e-005 0.94108421 0.0490148 0.00980296 9.803e-005 0.01 0.05 0.69 0.25 0.94108421 0.0490148 0.00980296 9.803e-005 0.94108421 0.0490148 0.00980296 9.803e-005 0.94108421 0.0490148 0.00980296 9.803e-005 0.3 0.4 0.29 0.01 0.94108421 0.0490148 0.00980296 9.803e-005 0.3 0.4 0.29 0.01 0.94108421 0.0490148 0.00980296 9.803e-005 0.3 0.4 0.29 0.01 0.94108421 0.0490148 0.00980296 9.803e-005</probabilities>
		</cpt>
		<cpt id="F6">
			<state id="Absent" />
			<state id="Slight" />
			<state id="Moderate" />
			<state id="Marked" />
			<parents>Fault F53</parents>
			<probabilities>0.95 0.05 0 0 0.75 0.25 0 0 0.4995005000000001 0.4495504500000001 0.04995005000000002 0.0009990000000000003 0 0.05 0.4 0.55 0.95 0.05 0 0 0.75 0.25 0 0 0.4995005000000001 0.4495504500000001 0.04995005000000002 0.0009990000000000003 0 0.05 0.4 0.55 0.95 0.05 0 0 0.75 0.25 0 0 0.4995005000000001 0.4495504500000001 0.04995005000000002 0.0009990000000000003 0 0.05 0.4 0.55 0.95 0.05 0 0 0.75 0.25 0 0 0.4995005000000001 0.4495504500000001 0.04995005000000002 0.0009990000000000003 0 0.05 0.4 0.55 0 0.0009990000000000001 0.2497503 0.7492507000000001 0.25 0.75 0 0 0 0.3996004 0.5994006 0.0009990000000000001 0 0.01 0.4 0.59 0.95 0.05 0 0 0.75 0.25 0 0 0.4995005000000001 0.4495504500000001 0.04995005000000002 0.0009990000000000003 0 0.05 0.4 0.55 0.95 0.05 0 0 0.75 0.25 0 0 0.4995005000000001 0.4495504500000001 0.04995005000000002 0.0009990000000000003 0 0.05 0.4 0.55 0.95 0.05 0 0 0.75 0.25 0 0 0.4995005000000001 0.4495504500000001 0.04995005000000002 0.0009990000000000003 0 0.05 0.4 0.55 0.95 0.05 0 0 0.75 0.25 0 0 0.4995005000000001 0.4495504500000001 0.04995005000000002 0.0009990000000000003 0 0.05 0.4 0.55 0 0.05 0.35 0.6 0 0.04 0.36 0.6 0 0.01 0.4 0.59 0 0.00537634 0.1344086 0.86021506 0.95 0.05 0 0 0.75 0.25 0 0 0.4995005000000001 0.4495504500000001 0.04995005000000002 0.0009990000000000003 0 0.05 0.4 0.55 0.95 0.05 0 0 0.75 0.25 0 0 0.4995005000000001 0.4495504500000001 0.04995005000000002 0.0009990000000000003 0 0.05 0.4 0.55 0.95 0.05 0 0 0.75 0.25 0 0 0.4995005000000001 0.4495504500000001 0.04995005000000002 0.0009990000000000003 0 0.05 0.4 0.55 0.95 0.05 0 0 0.75 0.25 0 0 0.4995005000000001 0.4495504500000001 0.04995005000000002 0.0009990000000000003 0 0.05 0.4 0.55 0.95 0.05 0 0 0.75 0.25 0 0 0.4995005000000001 0.4495504500000001 0.04995005000000002 0.0009990000000000003 0 0.05 0.4 0.55 0.95 0.05 0 0 0.75 0.25 0 0 0.4995005000000001 0.4495504500000001 0.04995005000000002 0.0009990000000000003 0 0.05 0.4 0.55 0.95 0.05 0 0 0.75 0.25 0 0 0.4995005000000001 0.4495504500000001 0.04995005000000002 0.0009990000000000003 0 0.05 0.4 0.55 0.95 0.05 0 0 0.75 0.25 0 0 0.4995005000000001 0.4495504500000001 0.04995005000000002 0.0009990000000000003 0 0.05 0.4 0.55 0.95 0.05 0 0 0.75 0.25 0 0 0.4995005000000001 0.4495504500000001 0.04995005000000002 0.0009990000000000003 0 0.05 0.4 0.55 0.95 0.05 0 0 0.75 0.25 0 0 0.4995005000000001 0.4495504500000001 0.04995005000000002 0.0009990000000000003 0 0.05 0.4 0.55 0.95 0.05 0 0 0.75 0.25 0 0 0.4995005000000001 0.4495504500000001 0.04995005000000002 0.0009990000000000003 0 0.05 0.4 0.55 0.95 0.05 0 0 0.75 0.25 0 0 0.4995005000000001 0.4495504500000001 0.04995005000000002 0.0009990000000000003 0 0.05 0.4 0.55 0.95 0.05 0 0 0.75 0.25 0 0 0.4995005000000001 0.4495504500000001 0.04995005000000002 0.0009990000000000003 0 0.05 0.4 0.55 0.95 0.05 0 0 0.75 0.25 0 0 0.4995005000000001 0.4495504500000001 0.04995005000000002 0.0009990000000000003 0 0.05 0.4 0.55 0.95 0.05 0 0 0.75 0.25 0 0 0.4995005000000001 0.4495504500000001 0.04995005000000002 0.0009990000000000003 0 0.05 0.4 0.55 0.95 0.05 0 0 0.75 0.25 0 0 0.4995005000000001 0.4495504500000001 0.04995005000000002 0.0009990000000000003 0 0.05 0.4 0.55 0.95 0.05 0 0 0.75 0.25 0 0 0.4995005000000001 0.4495504500000001 0.04995005000000002 0.0009990000000000003 0 0.05 0.4 0.55 0.95 0.05 0 0 0.75 0.25 0 0 0.4995005000000001 0.4495504500000001 0.04995005000000002 0.0009990000000000003 0 0.05 0.4 0.55 0.95 0.05 0 0 0.75 0.25 0 0 0.4995005000000001 0.4495504500000001 0.04995005000000002 0.0009990000000000003 0 0.05 0.4 0.55 0.95 0.05 0 0 0.75 0.25 0 0 0.4995005000000001 0.4495504500000001 0.04995005000000002 0.0009990000000000003 0 0.05 0.4 0.55 0.95 0.05 0 0 0.75 0.25 0 0 0.4995005000000001 0.4495504500000001 0.04995005000000002 0.0009990000000000003 0 0.05 0.4 0.55 0.95 0.05 0 0 0.75 0.25 0 0 0.4995005000000001 0.4495504500000001 0.04995005000000002 0.0009990000000000003 0 0.05 0.4 0.55 0.95 0.05 0 0 0.75 0.25 0 0 0.4995005000000001 0.4495504500000001 0.04995005000000002 0.0009990000000000003 0 0.05 0.4 0.55 0.95 0.05 0 0 0.75 0.25 0 0 0.4995005000000001 0.4495504500000001 0.04995005000000002 0.0009990000000000003 0 0.05 0.4 0.55 0.95 0.05 0 0 0.75 0.25 0 0 0.4995005000000001 0.4495504500000001 0.04995005000000002 0.0009990000000000003 0 0.05 0.4 0.55 0.95 0.05 0 0 0.75 0.25 0 0 0.4995005000000001 0.4495504500000001 0.04995005000000002 0.0009990000000000003 0 0.05 0.4 0.55 0.95 0.05 0 0 0.75 0.25 0 0 0.4995005000000001 0.4495504500000001 0.04995005000000002 0.0009990000000000003 0 0.05 0.4 0.55 0.95 0.05 0 0 0.75 0.25 0 0 0.4995005000000001 0.4495504500000001 0.04995005000000002 0.0009990000000000003 0 0.05 0.4 0.55 0.95 0.05 0 0 0.75 0.25 0 0 0.4995005000000001 0.4495504500000001 0.04995005000000002 0.0009990000000000003 0 0.05 0.4 0.55 0.95 0.05 0 0 0.75 0.25 0 0 0.4995005000000001 0.4495504500000001 0.04995005000000002 0.0009990000000000003 0 0.05 0.4 0.55 0.95 0.05 0 0 0.75 0.25 0 0 0.4995005000000001 0.4495504500000001 0.04995005000000002 0.0009990000000000003 0 0.05 0.4 0.55 0.95 0.05 0 0 0.75 0.25 0 0 0.4995005000000001 0.4495504500000001 0.04995005000000002 0.0009990000000000003 0 0.05 0.4 0.55 0.95 0.05 0 0 0.75 0.25 0 0 0.4995005000000001 0.4495504500000001 0.04995005000000002 0.0009990000000000003 0 0.05 0.4 0.55 0.95 0.05 0 0 0.75 0.25 0 0 0.4995005000000001 0.4495504500000001 0.04995005000000002 0.0009990000000000003 0 0.05 0.4 0.55 0.95 0.05 0 0 0.75 0.25 0 0 0.4995005000000001 0.4495504500000001 0.04995005000000002 0.0009990000000000003 0 0.05 0.4 0.55 0.95 0.05 0 0 0.75 0.25 0 0 0.4995005000000001 0.4495504500000001 0.04995005000000002 0.0009990000000000003 0 0.05 0.4 0.55 0.95 0.05 0 0 0.75 0.25 0 0 0.4995005000000001 0.4495504500000001 0.04995005000000002 0.0009990000000000003 0 0.05 0.4 0.55 0.95 0.05 0 0 0.75 0.25 0 0 0.4995005000000001 0.4495504500000001 0.04995005000000002 0.0009990000000000003 0 0.05 0.4 0.55 0.95 0.05 0 0 0.75 0.25 0 0 0.4995005000000001 0.4495504500000001 0.04995005000000002 0.0009990000000000003 0 0.05 0.4 0.55 0.95 0.05 0 0 0.75 0.25 0 0 0.4995005000000001 0.4495504500000001 0.04995005000000002 0.0009990000000000003 0 0.05 0.4 0.55 0.95 0.05 0 0 0.75 0.25 0 0 0.4995005000000001 0.4495504500000001 0.04995005000000002 0.0009990000000000003 0 0.05 0.4 0.55 0.95 0.05 0 0 0.75 0.25 0 0 0.4995005000000001 0.4495504500000001 0.04995005000000002 0.0009990000000000003 0 0.05 0.4 0.55 0.95 0.05 0 0 0.75 0.25 0 0 0.4995005000000001 0.4495504500000001 0.04995005000000002 0.0009990000000000003 0 0.05 0.4 0.55 0.95 0.05 0 0 0.75 0.25 0 0 0.4995005000000001 0.4495504500000001 0.04995005000000002 0.0009990000000000003 0 0.05 0.4 0.55 0.95 0.05 0 0 0.75 0.25 0 0 0.4995005000000001 0.4495504500000001 0.04995005000000002 0.0009990000000000003 0 0.05 0.4 0.55 0.95 0.05 0 0 0.75 0.25 0 0 0.4995005000000001 0.4495504500000001 0.04995005000000002 0.0009990000000000003 0 0.05 0.4 0.55 0.95 0.05 0 0 0.75 0.25 0 0 0.4995005000000001 0.4495504500000001 0.04995005000000002 0.0009990000000000003 0 0.05 0.4 0.55 0.95 0.05 0 0 0.75 0.25 0 0 0.4995005000000001 0.4495504500000001 0.04995005000000002 0.0009990000000000003 0 0.05 0.4 0.55 0.95 0.05 0 0 0.75 0.25 0 0 0.4995005000000001 0.4495504500000001 0.04995005000000002 0.0009990000000000003 0 0.05 0.4 0.55 0.95 0.05 0 0 0.75 0.25 0 0 0.4995005000000001 0.4495504500000001 0.04995005000000002 0.0009990000000000003 0 0.05 0.4 0.55 0.95 0.05 0 0 0.75 0.25 0 0 0.4995005000000001 0.4495504500000001 0.04995005000000002 0.0009990000000000003 0 0.05 0.4 0.55 0.95 0.05 0 0 0.75 0.25 0 0 0.4995005000000001 0.4495504500000001 0.04995005000000002 0.0009990000000000003 0 0.05 0.4 0.55 0.95 0.05 0 0 0.75 0.25 0 0 0.4995005000000001 0.4495504500000001 0.04995005000000002 0.0009990000000000003 0 0.05 0.4 0.55</probabilities>
		</cpt>
		<cpt id="F7">
			<state id="Absent" />
			<state id="Rare" />
			<state id="Focal" />
			<state id="Multifocal" />
			<state id="Extensive" />
			<parents>Fault</parents>
			<probabilities>0.97902098 0.01998002 0.0009990000000000001 0 0 0.97902098 0.01998002 0.0009990000000000001 0 0 0.97902098 0.01998002 0.0009990000000000001 0 0 0.97902098 0.01998002 0.0009990000000000001 0 0 0.4995004999999999 0.3996003999999999 0.09990009999999998 0.0009989999999999999 0 0.97902098 0.01998002 0.0009990000000000001 0 0 0.97902098 0.01998002 0.0009990000000000001 0 0 0.97902098 0.01998002 0.0009990000000000001 0 0 0.6993007 0.1998002 0.09990010000000001 0.0009990000000000001 0 0.97902098 0.01998002 0.0009990000000000001 0 0 0.97902098 0.01998002 0.0009990000000000001 0 0 0.01 0.54 0.25 0.15 0.05 0 0.01 0.09 0.6 0.3 0.97902098 0.01998002 0.0009990000000000001 0 0 0.97902098 0.01998002 0.0009990000000000001 0 0 0.97902098 0.01998002 0.0009990000000000001 0 0 0.97902098 0.01998002 0.0009990000000000001 0 0 0.97902098 0.01998002 0.0009990000000000001 0 0 0.97902098 0.01998002 0.0009990000000000001 0 0 0.97902098 0.01998002 0.0009990000000000001 0 0 0.97902098 0.01998002 0.0009990000000000001 0 0 0.97902098 0.01998002 0.0009990000000000001 0 0 0.8991009000000002 0.08991009000000001 0.009990010000000002 0.0009990000000000003 0 0.97902098 0.01998002 0.0009990000000000001 0 0 0 0.01 0.09 0.6 0.3 0.97902098 0.01998002 0.0009990000000000001 0 0 0.97902098 0.01998002 0.0009990000000000001 0 0 0.94 0.03 0.02 0.01 0 0.94 0.03 0.02 0.01 0 0.97902098 0.01998002 0.0009990000000000001 0 0 0.97902098 0.01998002 0.0009990000000000001 0 0 0.97902098 0.01998002 0.0009990000000000001 0 0 0.97902098 0.01998002 0.0009990000000000001 0 0 0.97902098 0.01998002 0.0009990000000000001 0 0 0.97902098 0.01998002 0.0009990000000000001 0 0 0.97902098 0.01998002 0.0009990000000000001 0 0 0.97902098 0.01998002 0.0009990000000000001 0 0 0.97902098 0.01998002 0.0009990000000000001 0 0 0.97902098 0.01998002 0.0009990000000000001 0 0 0.97902098 0.01998002 0.0009990000000000001 0 0 0.97902098 0.01998002 0.0009990000000000001 0 0 0.97902098 0.01998002 0.0009990000000000001 0 0 0.97902098 0.01998002 0.0009990000000000001 0 0 0.97902098 0.01998002 0.0009990000000000001 0 0 0.97902098 0.01998002 0.0009990000000000001 0 0 0.97902098 0.01998002 0.0009990000000000001 0 0 0.97902098 0.01998002 0.0009990000000000001 0 0 0.97902098 0.01998002 0.0009990000000000001 0 0 0.97902098 0.01998002 0.0009990000000000001 0 0 0.97902098 0.01998002 0.0009990000000000001 0 0 0.97902098 0.01998002 0.0009990000000000001 0 0 0.97902098 0.01998002 0.0009990000000000001 0 0 0.97902098 0.01998002 0.0009990000000000001 0 0 0.97902098 0.01998002 0.0009990000000000001 0 0 0.97902098 0.01998002 0.0009990000000000001 0 0 0.97902098 0.01998002 0.0009990000000000001 0 0 0.97902098 0.01998002 0.0009990000000000001 0 0 0.97902098 0.01998002 0.0009990000000000001 0 0 0.97902098 0.01998002 0.0009990000000000001 0 0 0.97902098 0.01998002 0.0009990000000000001 0 0 0.97902098 0.01998002 0.0009990000000000001 0 0 0.97902098 0.01998002 0.0009990000000000001 0 0 0.97902098 0.01998002 0.0009990000000000001 0 0</probabilities>
		</cpt>
		<cpt id="F56">
			<state id="Absent" />
			<state id="Focal__non_extensive_" />
			<state id="Multifocal__non_extensive_" />
			<state id="Extensive" />
			<parents>Fault</parents>
			<probabilities>0.98901099 0.009990010000000001 0.0009990000000000001 0 0.98901099 0.009990010000000001 0.0009990000000000001 0 0.98901099 0.009990010000000001 0.0009990000000000001 0 0 0.4 0.59 0.01 0.98901099 0.009990010000000001 0.0009990000000000001 0 0.98901099 0.009990010000000001 0.0009990000000000001 0 0.98901099 0.009990010000000001 0.0009990000000000001 0 0.98901099 0.009990010000000001 0.0009990000000000001 0 0.7 0.25 0.04 0.01 0.05 0.75 0.19 0.01 0.8991009000000002 0.08991009000000001 0.009990010000000002 0.0009990000000000003 0.6555555500000001 0.27777778 0.05555556000000001 0.01111111 0.98901099 0.009990010000000001 0.0009990000000000001 0 0.98901099 0.009990010000000001 0.0009990000000000001 0 0 0.2 0.75 0.05 0 0.2 0.75 0.05 0.98901099 0.009990010000000001 0.0009990000000000001 0 0.98901099 0.009990010000000001 0.0009990000000000001 0 0.98901099 0.009990010000000001 0.0009990000000000001 0 0.98901099 0.009990010000000001 0.0009990000000000001 0 0.98901099 0.009990010000000001 0.0009990000000000001 0 0.98901099 0.009990010000000001 0.0009990000000000001 0 0.01 0.1 0.3 0.59 0.8991009000000002 0.08991009000000001 0.009990010000000002 0.0009990000000000003 0.98901099 0.009990010000000001 0.0009990000000000001 0 0.98900111 0.009989909999999999 0.00099899 9.989999999999999e-006 0.98900111 0.009989909999999999 0.00099899 9.989999999999999e-006 0.49 0.2 0.3 0.01 0.49 0.2 0.3 0.01 0.49 0.2 0.3 0.01 0.84158416 0.12871287 0.01980198 0.00990099 0.84158416 0.12871287 0.01980198 0.00990099 0.92 0.05 0.02 0.01 0.92 0.05 0.02 0.01 0.993 0.001 0.001 0.005 0.993 0.001 0.001 0.005 0.993 0.001 0.001 0.005 0.993 0.001 0.001 0.005 0.944 0.05 0.005 0.001 0.944 0.05 0.005 0.001 0.98900111 0.009989909999999999 0.00099899 9.989999999999999e-006 0.944 0.05 0.005 0.001 0.944 0.05 0.005 0.001 0.83 0.1 0.05 0.02 0.83 0.1 0.05 0.02 0.83 0.1 0.05 0.02 0.944 0.05 0.005 0.001 0.83 0.1 0.05 0.02 0.83 0.1 0.05 0.02 0.83 0.1 0.05 0.02 0.83 0.1 0.05 0.02 0.944 0.05 0.005 0.001 0.98901099 0.009990010000000001 0.0009990000000000001 0 0.98901099 0.009990010000000001 0.0009990000000000001 0 0.98901099 0.009990010000000001 0.0009990000000000001 0 0.98901099 0.009990010000000001 0.0009990000000000001 0 0.84 0.1 0.05 0.01 0.98901099 0.009990010000000001 0.0009990000000000001 0 0.98901099 0.009990010000000001 0.0009990000000000001 0 0.98901099 0.009990010000000001 0.0009990000000000001 0 0.7992008 0.14985015 0.04995005 0.0009990000000000001 0.98901099 0.009990010000000001 0.0009990000000000001 0 0.83 0.1 0.05 0.02</probabilities>
		</cpt>
		<cpt id="F8">
			<state id="Absent_to_slight___5__" />
			<state id="Moderate__5_50__" />
			<state id="Marked___50__" />
			<parents>Fault F53 F56</parents>
			<probabilities>0.95 0.05 0 0.91542289 0.07960199 0.00497512 0.8 0.2 0 0.8 0.2 0 0.9047619 0.08571429 0.009523810000000001 0.885 0.1 0.015 0.79 0.17 0.04 0.9047619 0.08571429 0.009523810000000001 0.75 0.2 0.05 0.755 0.23 0.015 0.64 0.28 0.08 0.75 0.2 0.05 0.55 0.2 0.25 0.52 0.23 0.25 0.35 0.35 0.3 0 0.1 0.9 0.95 0.05 0 0.91542289 0.07960199 0.00497512 0.8 0.2 0 0.8 0.2 0 0.9047619 0.08571429 0.009523810000000001 0.885 0.1 0.015 0.79 0.17 0.04 0.9047619 0.08571429 0.009523810000000001 0.75 0.2 0.05 0.755 0.23 0.015 0.64 0.28 0.08 0.75 0.2 0.05 0.55 0.2 0.25 0.52 0.23 0.25 0.35 0.35 0.3 0 0.1 0.9 0.95 0.05 0 0.91542289 0.07960199 0.00497512 0.8 0.2 0 0.8 0.2 0 0.9047619 0.08571429 0.009523810000000001 0.885 0.1 0.015 0.79 0.17 0.04 0.9047619 0.08571429 0.009523810000000001 0.75 0.2 0.05 0.755 0.23 0.015 0.64 0.28 0.08 0.75 0.2 0.05 0.55 0.2 0.25 0.52 0.23 0.25 0.35 0.35 0.3 0 0.1 0.9 0.95 0.05 0 0.91542289 0.07960199 0.00497512 0.8 0.2 0 0.8 0.2 0 0.9047619 0.08571429 0.009523810000000001 0.885 0.1 0.015 0.79 0.17 0.04 0.9047619 0.08571429 0.009523810000000001 0.75 0.2 0.05 0.755 0.23 0.015 0.64 0.28 0.08 0.75 0.2 0.05 0.55 0.2 0.25 0.52 0.23 0.25 0.35 0.35 0.3 0 0.1 0.9 0 0.001 0.999 0 0.001 0.999 0 0.01 0.99 0 0.1 0.9 0.95 0.04 0.01 0.915 0.07000000000000001 0.015 0.84 0.12 0.04 0.95 0.04 0.01 0.8 0.15 0.05 0.265 0.72 0.015 0.6900000000000001 0.2300000000000001 0.08000000000000002 0.8 0.15 0.05 0.6 0.15 0.25 0.57 0.18 0.25 0.4 0.3 0.3 0 0.1 0.9 0.95 0.05 0 0.91542289 0.07960199 0.00497512 0.8 0.2 0 0.8 0.2 0 0.9047619 0.08571429 0.009523810000000001 0.885 0.1 0.015 0.79 0.17 0.04 0.9047619 0.08571429 0.009523810000000001 0.75 0.2 0.05 0.755 0.23 0.015 0.64 0.28 0.08 0.75 0.2 0.05 0.55 0.2 0.25 0.52 0.23 0.25 0.35 0.35 0.3 0 0.1 0.9 0.99 0.01 0 0.95454545 0.04040404 0.00505051 0.99 0.01 0 0.99 0.01 0 0.95 0.04 0.01 0.915 0.07000000000000001 0.015 0.84 0.12 0.04 0.95 0.04 0.01 0.8 0.15 0.05 0.265 0.72 0.015 0.6900000000000001 0.2300000000000001 0.08000000000000002 0.8 0.15 0.05 0.6 0.15 0.25 0.57 0.18 0.25 0.4 0.3 0.3 0 0.1 0.9 0.99 0.01 0 0.95454545 0.04040404 0.00505051 0.99 0.01 0 0.99 0.01 0 0.95 0.04 0.01 0.915 0.07000000000000001 0.015 0.84 0.12 0.04 0.95 0.04 0.01 0.8 0.15 0.05 0.265 0.72 0.015 0.6900000000000001 0.2300000000000001 0.08000000000000002 0.8 0.15 0.05 0.6 0.15 0.25 0.57 0.18 0.25 0.4 0.3 0.3 0 0.1 0.9 0.5 0.49 0.01 0.49 0.495 0.015 0.5 0.45 0.05 0.5 0.45 0.05 0.48 0.5 0.02 0.525 0.45 0.025 0.5 0.45 0.05 0.48 0.5 0.02 0.3 0.65 0.05 0.275 0.67 0.055 0.1900000000000001 0.7300000000000001 0.08000000000000002 0.34285714 0.61904762 0.03809524 0.05 0.65 0.3 0.05 0.65 0.3 0.04 0.61 0.35 0 0.1 0.9 0.99 0.01 0 0.95454545 0.04040404 0.00505051 0.99 0.01 0 0.99 0.01 0 0.95 0.04 0.01 0.915 0.07000000000000001 0.015 0.84 0.12 0.04 0.95 0.04 0.01 0.8 0.15 0.05 0.265 0.72 0.015 0.6900000000000001 0.2300000000000001 0.08000000000000002 0.8 0.15 0.05 0.6 0.15 0.25 0.57 0.18 0.25 0.4 0.3 0.3 0 0.1 0.9 0.95 0.05 0 0.91542289 0.07960199 0.00497512 0.8 0.2 0 0.8 0.2 0 0.9047619 0.08571429 0.009523810000000001 0.885 0.1 0.015 0.79 0.17 0.04 0.9047619 0.08571429 0.009523810000000001 0.75 0.2 0.05 0.755 0.23 0.015 0.64 0.28 0.08 0.75 0.2 0.05 0.55 0.2 0.25 0.52 0.23 0.25 0.35 0.35 0.3 0 0.1 0.9 0.79 0.2 0.01 0.755 0.23 0.015 0.79 0.2 0.01 0.79 0.2 0.01 0.74 0.24 0.02 0.725 0.25 0.025 0.7 0.25 0.05 0.74 0.24 0.02 0.6 0.34 0.06 0.565 0.37 0.065 0.4900000000000001 0.4200000000000001 0.09000000000000001 0.61 0.34 0.05 0.49 0.25 0.26 0.46 0.28 0.26 0.29 0.4 0.31 0 0.1 0.9 0.99 0.01 0 0.95454545 0.04040404 0.00505051 0.99 0.01 0 0.99 0.01 0 0.95 0.04 0.01 0.915 0.07000000000000001 0.015 0.84 0.12 0.04 0.95 0.04 0.01 0.8 0.15 0.05 0.265 0.72 0.015 0.6900000000000001 0.2300000000000001 0.08000000000000002 0.8 0.15 0.05 0.6 0.15 0.25 0.57 0.18 0.25 0.4 0.3 0.3 0 0.1 0.9 0.99 0.01 0 0.95454545 0.04040404 0.00505051 0.99 0.01 0 0.99 0.01 0 0.95 0.04 0.01 0.915 0.07000000000000001 0.015 0.84 0.12 0.04 0.95 0.04 0.01 0.8 0.15 0.05 0.265 0.72 0.015 0.6900000000000001 0.2300000000000001 0.08000000000000002 0.8 0.15 0.05 0.6 0.15 0.25 0.57 0.18 0.25 0.4 0.3 0.3 0 0.1 0.9 0.3333333333333334 0.3333333333333334 0.3333333333333334 0.2 0.75 0.05 0.13 0.8 0.07000000000000001 0.38 0.6 0.02 0.3333333333333334 0.3333333333333334 0.3333333333333334 0.15 0.79 0.06 0.05 0.87 0.08 0.33 0.64 0.03 0.3333333333333334 0.3333333333333334 0.3333333333333334 0.05 0.85 0.1 0.02 0.86 0.12 0.18 0.75 0.07000000000000001 0.3333333333333334 0.3333333333333334 0.3333333333333334 0.02 0.6800000000000001 0.3 0.01 0.67 0.32 0.00497512 0.72636816 0.26865672 0.3333333333333334 0.3333333333333334 0.3333333333333334 0.2 0.75 0.05 0.13 0.8 0.07000000000000001 0.38 0.6 0.02 0.3333333333333334 0.3333333333333334 0.3333333333333334 0.15 0.79 0.06 0.05 0.87 0.08 0.33 0.64 0.03 0.3333333333333334 0.3333333333333334 0.3333333333333334 0.05 0.85 0.1 0.02 0.86 0.12 0.18 0.75 0.07000000000000001 0.3333333333333334 0.3333333333333334 0.3333333333333334 0.02 0.6800000000000001 0.3 0.01 0.67 0.32 0.00497512 0.72636816 0.26865672 0.99 0.01 0 0.95454545 0.04040404 0.00505051 0.99 0.01 0 0.99 0.01 0 0.95 0.04 0.01 0.915 0.07000000000000001 0.015 0.84 0.12 0.04 0.95 0.04 0.01 0.8 0.15 0.05 0.265 0.72 0.015 0.6900000000000001 0.2300000000000001 0.08000000000000002 0.8 0.15 0.05 0.6 0.15 0.25 0.57 0.18 0.25 0.4 0.3 0.3 0 0.1 0.9 0.99 0.01 0 0.95454545 0.04040404 0.00505051 0.99 0.01 0 0.99 0.01 0 0.95 0.04 0.01 0.915 0.07000000000000001 0.015 0.84 0.12 0.04 0.95 0.04 0.01 0.8 0.15 0.05 0.265 0.72 0.015 0.6900000000000001 0.2300000000000001 0.08000000000000002 0.8 0.15 0.05 0.6 0.15 0.25 0.57 0.18 0.25 0.4 0.3 0.3 0 0.1 0.9 0 0.2 0.8 0 0.2 0.8 0 0.2 0.8 0 0.2 0.8 0 0.2 0.8 0 0.2 0.8 0 0.2 0.8 0 0.25 0.75 0 0.15 0.85 0 0.15 0.85 0 0.15 0.85 0 0.2 0.8 0 0.1 0.9 0 0.1 0.9 0 0.05 0.95 0 0.02 0.98 0.01 0.5 0.49 0.01 0.5 0.49 0.01 0.5 0.49 0.01 0.5 0.49 0.01 0.49 0.5 0.01 0.49 0.5 0.01 0.5 0.49 0.01 0.54 0.45 0.0009990000999000102 0.4495504449550445 0.5494505549450555 0.0009990000999000102 0.4495504449550445 0.5494505549450555 0.0009990000999000102 0.4495504449550445 0.5494505549450555 0.0009990000000000001 0.4995005 0.4995005 9.999e-005 0.249975 0.74992501 9.999e-005 0.249975 0.74992501 9.999e-005 0.19998 0.79992001 0.01 0.05 0.94 0.95 0.05 0 0.91542289 0.07960199 0.00497512 0.8 0.2 0 0.8 0.2 0 0.9047619 0.08571429 0.009523810000000001 0.885 0.1 0.015 0.79 0.17 0.04 0.9047619 0.08571429 0.009523810000000001 0.75 0.2 0.05 0.755 0.23 0.015 0.64 0.28 0.08 0.75 0.2 0.05 0.55 0.2 0.25 0.52 0.23 0.25 0.35 0.35 0.3 0 0.1 0.9 0.99 0.01 0 0.95454545 0.04040404 0.00505051 0.99 0.01 0 0.99 0.01 0 0.95 0.04 0.01 0.915 0.07000000000000001 0.015 0.84 0.12 0.04 0.95 0.04 0.01 0.8 0.15 0.05 0.265 0.72 0.015 0.6900000000000001 0.2300000000000001 0.08000000000000002 0.8 0.15 0.05 0.6 0.15 0.25 0.57 0.18 0.25 0.4 0.3 0.3 0 0.1 0.9 0.99 0.01 0 0.95454545 0.04040404 0.00505051 0.99 0.01 0 0.99 0.01 0 0.95 0.04 0.01 0.915 0.07000000000000001 0.015 0.84 0.12 0.04 0.95 0.04 0.01 0.8 0.15 0.05 0.265 0.72 0.015 0.6900000000000001 0.2300000000000001 0.08000000000000002 0.8 0.15 0.05 0.6 0.15 0.25 0.57 0.18 0.25 0.4 0.3 0.3 0 0.1 0.9 0.95 0.05 0 0.91542289 0.07960199 0.00497512 0.8 0.2 0 0.8 0.2 0 0.9047619 0.08571429 0.009523810000000001 0.885 0.1 0.015 0.79 0.17 0.04 0.9047619 0.08571429 0.009523810000000001 0.75 0.2 0.05 0.755 0.23 0.015 0.64 0.28 0.08 0.75 0.2 0.05 0.55 0.2 0.25 0.52 0.23 0.25 0.35 0.35 0.3 0 0.1 0.9 0.99 0.01 0 0.95454545 0.04040404 0.00505051 0.99 0.01 0 0.99 0.01 0 0.95 0.04 0.01 0.915 0.07000000000000001 0.015 0.84 0.12 0.04 0.95 0.04 0.01 0.8 0.15 0.05 0.265 0.72 0.015 0.6900000000000001 0.2300000000000001 0.08000000000000002 0.8 0.15 0.05 0.6 0.15 0.25 0.57 0.18 0.25 0.4 0.3 0.3 0 0.1 0.9 0.99 0.01 0 0.95454545 0.04040404 0.00505051 0.99 0.01 0 0.99 0.01 0 0.95 0.04 0.01 0.915 0.07000000000000001 0.015 0.84 0.12 0.04 0.95 0.04 0.01 0.8 0.15 0.05 0.265 0.72 0.015 0.6900000000000001 0.2300000000000001 0.08000000000000002 0.8 0.15 0.05 0.6 0.15 0.25 0.57 0.18 0.25 0.4 0.3 0.3 0 0.1 0.9 0.99 0.01 0 0.95454545 0.04040404 0.00505051 0.99 0.01 0 0.99 0.01 0 0.95 0.04 0.01 0.915 0.07000000000000001 0.015 0.84 0.12 0.04 0.95 0.04 0.01 0.8 0.15 0.05 0.265 0.72 0.015 0.6900000000000001 0.2300000000000001 0.08000000000000002 0.8 0.15 0.05 0.6 0.15 0.25 0.57 0.18 0.25 0.4 0.3 0.3 0 0.1 0.9 0.99 0.01 0 0.95454545 0.04040404 0.00505051 0.99 0.01 0 0.99 0.01 0 0.95 0.04 0.01 0.915 0.07000000000000001 0.015 0.84 0.12 0.04 0.95 0.04 0.01 0.8 0.15 0.05 0.265 0.72 0.015 0.6900000000000001 0.2300000000000001 0.08000000000000002 0.8 0.15 0.05 0.6 0.15 0.25 0.57 0.18 0.25 0.4 0.3 0.3 0 0.1 0.9 0.99 0.01 0 0.95454545 0.04040404 0.00505051 0.99 0.01 0 0.99 0.01 0 0.95 0.04 0.01 0.915 0.07000000000000001 0.015 0.84 0.12 0.04 0.95 0.04 0.01 0.8 0.15 0.05 0.265 0.72 0.015 0.6900000000000001 0.2300000000000001 0.08000000000000002 0.8 0.15 0.05 0.6 0.15 0.25 0.57 0.18 0.25 0.4 0.3 0.3 0 0.1 0.9 0.99 0.01 0 0.95454545 0.04040404 0.00505051 0.99 0.01 0 0.99 0.01 0 0.95 0.04 0.01 0.915 0.07000000000000001 0.015 0.84 0.12 0.04 0.95 0.04 0.01 0.8 0.15 0.05 0.265 0.72 0.015 0.6900000000000001 0.2300000000000001 0.08000000000000002 0.8 0.15 0.05 0.6 0.15 0.25 0.57 0.18 0.25 0.4 0.3 0.3 0 0.1 0.9 0.99 0.01 0 0.95454545 0.04040404 0.00505051 0.99 0.01 0 0.99 0.01 0 0.95 0.04 0.01 0.915 0.07000000000000001 0.015 0.84 0.12 0.04 0.95 0.04 0.01 0.8 0.15 0.05 0.265 0.72 0.015 0.6900000000000001 0.2300000000000001 0.08000000000000002 0.8 0.15 0.05 0.6 0.15 0.25 0.57 0.18 0.25 0.4 0.3 0.3 0 0.1 0.9 0.99 0.01 0 0.95454545 0.04040404 0.00505051 0.99 0.01 0 0.99 0.01 0 0.95 0.04 0.01 0.915 0.07000000000000001 0.015 0.84 0.12 0.04 0.95 0.04 0.01 0.8 0.15 0.05 0.265 0.72 0.015 0.6900000000000001 0.2300000000000001 0.08000000000000002 0.8 0.15 0.05 0.6 0.15 0.25 0.57 0.18 0.25 0.4 0.3 0.3 0 0.1 0.9 0.99 0.01 0 0.95454545 0.04040404 0.00505051 0.99 0.01 0 0.99 0.01 0 0.95 0.04 0.01 0.915 0.07000000000000001 0.015 0.84 0.12 0.04 0.95 0.04 0.01 0.8 0.15 0.05 0.265 0.72 0.015 0.6900000000000001 0.2300000000000001 0.08000000000000002 0.8 0.15 0.05 0.6 0.15 0.25 0.57 0.18 0.25 0.4 0.3 0.3 0 0.1 0.9 0.99 0.01 0 0.95454545 0.04040404 0.00505051 0.99 0.01 0 0.99 0.01 0 0.95 0.04 0.01 0.915 0.07000000000000001 0.015 0.84 0.12 0.04 0.95 0.04 0.01 0.8 0.15 0.05 0.265 0.72 0.015 0.6900000000000001 0.2300000000000001 0.08000000000000002 0.8 0.15 0.05 0.6 0.15 0.25 0.57 0.18 0.25 0.4 0.3 0.3 0 0.1 0.9 0.99 0.01 0 0.95454545 0.04040404 0.00505051 0.99 0.01 0 0.99 0.01 0 0.95 0.04 0.01 0.915 0.07000000000000001 0.015 0.84 0.12 0.04 0.95 0.04 0.01 0.8 0.15 0.05 0.265 0.72 0.015 0.6900000000000001 0.2300000000000001 0.08000000000000002 0.8 0.15 0.05 0.6 0.15 0.25 0.57 0.18 0.25 0.4 0.3 0.3 0 0.1 0.9 0.99 0.01 0 0.95454545 0.04040404 0.00505051 0.99 0.01 0 0.99 0.01 0 0.95 0.04 0.01 0.915 0.07000000000000001 0.015 0.84 0.12 0.04 0.95 0.04 0.01 0.8 0.15 0.05 0.265 0.72 0.015 0.6900000000000001 0.2300000000000001 0.08000000000000002 0.8 0.15 0.05 0.6 0.15 0.25 0.57 0.18 0.25 0.4 0.3 0.3 0 0.1 0.9 0.99 0.01 0 0.95454545 0.04040404 0.00505051 0.99 0.01 0 0.99 0.01 0 0.95 0.04 0.01 0.915 0.07000000000000001 0.015 0.84 0.12 0.04 0.95 0.04 0.01 0.8 0.15 0.05 0.265 0.72 0.015 0.6900000000000001 0.2300000000000001 0.08000000000000002 0.8 0.15 0.05 0.6 0.15 0.25 0.57 0.18 0.25 0.4 0.3 0.3 0 0.1 0.9 0.99 0.01 0 0.95454545 0.04040404 0.00505051 0.99 0.01 0 0.99 0.01 0 0.95 0.04 0.01 0.915 0.07000000000000001 0.015 0.84 0.12 0.04 0.95 0.04 0.01 0.8 0.15 0.05 0.265 0.72 0.015 0.6900000000000001 0.2300000000000001 0.08000000000000002 0.8 0.15 0.05 0.6 0.15 0.25 0.57 0.18 0.25 0.4 0.3 0.3 0 0.1 0.9 0.99 0.01 0 0.95454545 0.04040404 0.00505051 0.99 0.01 0 0.99 0.01 0 0.95 0.04 0.01 0.915 0.07000000000000001 0.015 0.84 0.12 0.04 0.95 0.04 0.01 0.8 0.15 0.05 0.265 0.72 0.015 0.6900000000000001 0.2300000000000001 0.08000000000000002 0.8 0.15 0.05 0.6 0.15 0.25 0.57 0.18 0.25 0.4 0.3 0.3 0 0.1 0.9 0.99 0.01 0 0.95454545 0.04040404 0.00505051 0.99 0.01 0 0.99 0.01 0 0.95 0.04 0.01 0.915 0.07000000000000001 0.015 0.84 0.12 0.04 0.95 0.04 0.01 0.8 0.15 0.05 0.265 0.72 0.015 0.6900000000000001 0.2300000000000001 0.08000000000000002 0.8 0.15 0.05 0.6 0.15 0.25 0.57 0.18 0.25 0.4 0.3 0.3 0 0.1 0.9 0.99 0.01 0 0.95454545 0.04040404 0.00505051 0.99 0.01 0 0.99 0.01 0 0.95 0.04 0.01 0.915 0.07000000000000001 0.015 0.84 0.12 0.04 0.95 0.04 0.01 0.8 0.15 0.05 0.265 0.72 0.015 0.6900000000000001 0.2300000000000001 0.08000000000000002 0.8 0.15 0.05 0.6 0.15 0.25 0.57 0.18 0.25 0.4 0.3 0.3 0 0.1 0.9 0.99 0.01 0 0.95454545 0.04040404 0.00505051 0.99 0.01 0 0.99 0.01 0 0.95 0.04 0.01 0.915 0.07000000000000001 0.015 0.84 0.12 0.04 0.95 0.04 0.01 0.8 0.15 0.05 0.265 0.72 0.015 0.6900000000000001 0.2300000000000001 0.08000000000000002 0.8 0.15 0.05 0.6 0.15 0.25 0.57 0.18 0.25 0.4 0.3 0.3 0 0.1 0.9 0.99 0.01 0 0.95454545 0.04040404 0.00505051 0.99 0.01 0 0.99 0.01 0 0.95 0.04 0.01 0.915 0.07000000000000001 0.015 0.84 0.12 0.04 0.95 0.04 0.01 0.8 0.15 0.05 0.265 0.72 0.015 0.6900000000000001 0.2300000000000001 0.08000000000000002 0.8 0.15 0.05 0.6 0.15 0.25 0.57 0.18 0.25 0.4 0.3 0.3 0 0.1 0.9 0.99 0.01 0 0.95454545 0.04040404 0.00505051 0.99 0.01 0 0.99 0.01 0 0.95 0.04 0.01 0.915 0.07000000000000001 0.015 0.84 0.12 0.04 0.95 0.04 0.01 0.8 0.15 0.05 0.265 0.72 0.015 0.6900000000000001 0.2300000000000001 0.08000000000000002 0.8 0.15 0.05 0.6 0.15 0.25 0.57 0.18 0.25 0.4 0.3 0.3 0 0.1 0.9 0.99 0.01 0 0.95454545 0.04040404 0.00505051 0.99 0.01 0 0.99 0.01 0 0.95 0.04 0.01 0.915 0.07000000000000001 0.015 0.84 0.12 0.04 0.95 0.04 0.01 0.8 0.15 0.05 0.265 0.72 0.015 0.6900000000000001 0.2300000000000001 0.08000000000000002 0.8 0.15 0.05 0.6 0.15 0.25 0.57 0.18 0.25 0.4 0.3 0.3 0 0.1 0.9 0.99 0.01 0 0.95454545 0.04040404 0.00505051 0.99 0.01 0 0.99 0.01 0 0.95 0.04 0.01 0.915 0.07000000000000001 0.015 0.84 0.12 0.04 0.95 0.04 0.01 0.8 0.15 0.05 0.265 0.72 0.015 0.6900000000000001 0.2300000000000001 0.08000000000000002 0.8 0.15 0.05 0.6 0.15 0.25 0.57 0.18 0.25 0.4 0.3 0.3 0 0.1 0.9 0.95 0.05 0 0.91542289 0.07960199 0.00497512 0.8 0.2 0 0.8 0.2 0 0.9047619 0.08571429 0.009523810000000001 0.885 0.1 0.015 0.79 0.17 0.04 0.9047619 0.08571429 0.009523810000000001 0.75 0.2 0.05 0.755 0.23 0.015 0.64 0.28 0.08 0.75 0.2 0.05 0.55 0.2 0.25 0.52 0.23 0.25 0.35 0.35 0.3 0 0.1 0.9 0.95 0.05 0 0.91542289 0.07960199 0.00497512 0.8 0.2 0 0.8 0.2 0 0.9047619 0.08571429 0.009523810000000001 0.885 0.1 0.015 0.79 0.17 0.04 0.9047619 0.08571429 0.009523810000000001 0.75 0.2 0.05 0.755 0.23 0.015 0.64 0.28 0.08 0.75 0.2 0.05 0.55 0.2 0.25 0.52 0.23 0.25 0.35 0.35 0.3 0 0.1 0.9 0.99 0.01 0 0.95454545 0.04040404 0.00505051 0.99 0.01 0 0.99 0.01 0 0.95 0.04 0.01 0.915 0.07000000000000001 0.015 0.84 0.12 0.04 0.95 0.04 0.01 0.8 0.15 0.05 0.265 0.72 0.015 0.6900000000000001 0.2300000000000001 0.08000000000000002 0.8 0.15 0.05 0.6 0.15 0.25 0.57 0.18 0.25 0.4 0.3 0.3 0 0.1 0.9 0.99 0.01 0 0.95454545 0.04040404 0.00505051 0.99 0.01 0 0.99 0.01 0 0.95 0.04 0.01 0.915 0.07000000000000001 0.015 0.84 0.12 0.04 0.95 0.04 0.01 0.8 0.15 0.05 0.265 0.72 0.015 0.6900000000000001 0.2300000000000001 0.08000000000000002 0.8 0.15 0.05 0.6 0.15 0.25 0.57 0.18 0.25 0.4 0.3 0.3 0 0.1 0.9 0.99 0.01 0 0.95454545 0.04040404 0.00505051 0.99 0.01 0 0.99 0.01 0 0.95 0.04 0.01 0.915 0.07000000000000001 0.015 0.84 0.12 0.04 0.95 0.04 0.01 0.8 0.15 0.05 0.265 0.72 0.015 0.6900000000000001 0.2300000000000001 0.08000000000000002 0.8 0.15 0.05 0.6 0.15 0.25 0.57 0.18 0.25 0.4 0.3 0.3 0 0.1 0.9 0.99 0.01 0 0.95454545 0.04040404 0.00505051 0.99 0.01 0 0.99 0.01 0 0.95 0.04 0.01 0.915 0.07000000000000001 0.015 0.84 0.12 0.04 0.95 0.04 0.01 0.8 0.15 0.05 0.265 0.72 0.015 0.6900000000000001 0.2300000000000001 0.08000000000000002 0.8 0.15 0.05 0.6 0.15 0.25 0.57 0.18 0.25 0.4 0.3 0.3 0 0.1 0.9 0.99 0.01 0 0.95454545 0.04040404 0.00505051 0.99 0.01 0 0.99 0.01 0 0.95 0.04 0.01 0.915 0.07000000000000001 0.015 0.84 0.12 0.04 0.95 0.04 0.01 0.8 0.15 0.05 0.265 0.72 0.015 0.6900000000000001 0.2300000000000001 0.08000000000000002 0.8 0.15 0.05 0.6 0.15 0.25 0.57 0.18 0.25 0.4 0.3 0.3 0 0.1 0.9 0.99 0.01 0 0.95454545 0.04040404 0.00505051 0.99 0.01 0 0.99 0.01 0 0.95 0.04 0.01 0.915 0.07000000000000001 0.015 0.84 0.12 0.04 0.95 0.04 0.01 0.8 0.15 0.05 0.265 0.72 0.015 0.6900000000000001 0.2300000000000001 0.08000000000000002 0.8 0.15 0.05 0.6 0.15 0.25 0.57 0.18 0.25 0.4 0.3 0.3 0 0.1 0.9 0.99 0.01 0 0.95454545 0.04040404 0.00505051 0.99 0.01 0 0.99 0.01 0 0.95 0.04 0.01 0.915 0.07000000000000001 0.015 0.84 0.12 0.04 0.95 0.04 0.01 0.8 0.15 0.05 0.265 0.72 0.015 0.6900000000000001 0.2300000000000001 0.08000000000000002 0.8 0.15 0.05 0.6 0.15 0.25 0.57 0.18 0.25 0.4 0.3 0.3 0 0.1 0.9 0.99 0.01 0 0.95454545 0.04040404 0.00505051 0.99 0.01 0 0.99 0.01 0 0.95 0.04 0.01 0.915 0.07000000000000001 0.015 0.84 0.12 0.04 0.95 0.04 0.01 0.8 0.15 0.05 0.265 0.72 0.015 0.6900000000000001 0.2300000000000001 0.08000000000000002 0.8 0.15 0.05 0.6 0.15 0.25 0.57 0.18 0.25 0.4 0.3 0.3 0 0.1 0.9 0.99 0.01 0 0.95454545 0.04040404 0.00505051 0.99 0.01 0 0.99 0.01 0 0.95 0.04 0.01 0.915 0.07000000000000001 0.015 0.84 0.12 0.04 0.95 0.04 0.01 0.8 0.15 0.05 0.265 0.72 0.015 0.6900000000000001 0.2300000000000001 0.08000000000000002 0.8 0.15 0.05 0.6 0.15 0.25 0.57 0.18 0.25 0.4 0.3 0.3 0 0.1 0.9 0.95 0.05 0 0.91542289 0.07960199 0.00497512 0.8 0.2 0 0.8 0.2 0 0.9047619 0.08571429 0.009523810000000001 0.885 0.1 0.015 0.79 0.17 0.04 0.9047619 0.08571429 0.009523810000000001 0.75 0.2 0.05 0.755 0.23 0.015 0.64 0.28 0.08 0.75 0.2 0.05 0.55 0.2 0.25 0.52 0.23 0.25 0.35 0.35 0.3 0 0.1 0.9 0.99 0.01 0 0.95454545 0.04040404 0.00505051 0.99 0.01 0 0.99 0.01 0 0.95 0.04 0.01 0.915 0.07000000000000001 0.015 0.84 0.12 0.04 0.95 0.04 0.01 0.8 0.15 0.05 0.265 0.72 0.015 0.6900000000000001 0.2300000000000001 0.08000000000000002 0.8 0.15 0.05 0.6 0.15 0.25 0.57 0.18 0.25 0.4 0.3 0.3 0 0.1 0.9 0.95 0.05 0 0.91542289 0.07960199 0.00497512 0.8 0.2 0 0.8 0.2 0 0.9047619 0.08571429 0.009523810000000001 0.885 0.1 0.015 0.79 0.17 0.04 0.9047619 0.08571429 0.009523810000000001 0.75 0.2 0.05 0.755 0.23 0.015 0.64 0.28 0.08 0.75 0.2 0.05 0.55 0.2 0.25 0.52 0.23 0.25 0.35 0.35 0.3 0 0.1 0.9 0.99 0.01 0 0.95454545 0.04040404 0.00505051 0.99 0.01 0 0.99 0.01 0 0.95 0.04 0.01 0.915 0.07000000000000001 0.015 0.84 0.12 0.04 0.95 0.04 0.01 0.8 0.15 0.05 0.265 0.72 0.015 0.6900000000000001 0.2300000000000001 0.08000000000000002 0.8 0.15 0.05 0.6 0.15 0.25 0.57 0.18 0.25 0.4 0.3 0.3 0 0.1 0.9 0.95 0.05 0 0.91542289 0.07960199 0.00497512 0.8 0.2 0 0.8 0.2 0 0.9047619 0.08571429 0.009523810000000001 0.885 0.1 0.015 0.79 0.17 0.04 0.9047619 0.08571429 0.009523810000000001 0.75 0.2 0.05 0.755 0.23 0.015 0.64 0.28 0.08 0.75 0.2 0.05 0.55 0.2 0.25 0.52 0.23 0.25 0.35 0.35 0.3 0 0.1 0.9 0.99 0.01 0 0.95454545 0.04040404 0.00505051 0.99 0.01 0 0.99 0.01 0 0.95 0.04 0.01 0.915 0.07000000000000001 0.015 0.84 0.12 0.04 0.95 0.04 0.01 0.8 0.15 0.05 0.265 0.72 0.015 0.6900000000000001 0.2300000000000001 0.08000000000000002 0.8 0.15 0.05 0.6 0.15 0.25 0.57 0.18 0.25 0.4 0.3 0.3 0 0.1 0.9</probabilities>
		</cpt>
		<cpt id="F9">
			<state id="Absent" />
			<state id="Rare" />
			<state id="Focal_SS_pattern" />
			<state id="Multifocal_SS_pattern" />
			<state id="Extensive_SS_pattern" />
			<parents>Fault</parents>
			<probabilities>0.8991009 0.09990010000000001 0.0009990000000000001 0 0 0.8991009 0.09990010000000001 0.0009990000000000001 0 0 0.8991009 0.09990010000000001 0.0009990000000000001 0 0 0.7418397600000001 0.24727992 0.009891200000000001 0.0009891200000000002 0 0.8991009 0.09990010000000001 0.0009990000000000001 0 0 0.8991009 0.09990010000000001 0.0009990000000000001 0 0 0.8991009 0.09990010000000001 0.0009990000000000001 0 0 0.8991009 0.09990010000000001 0.0009990000000000001 0 0 0.8991009 0.09990010000000001 0.0009990000000000001 0 0 0.8991009 0.09990010000000001 0.0009990000000000001 0 0 0.68931069 0.24975025 0.04995005 0.009990010000000001 0.0009990000000000001 0.8991009 0.09990010000000001 0.0009990000000000001 0 0 0.8991009 0.09990010000000001 0.0009990000000000001 0 0 0.8991009 0.09990010000000001 0.0009990000000000001 0 0 0.7418397600000001 0.24727992 0.009891200000000001 0.0009891200000000002 0 0.7418397600000001 0.24727992 0.009891200000000001 0.0009891200000000002 0 0.8991009 0.09990010000000001 0.0009990000000000001 0 0 0.8991009 0.09990010000000001 0.0009990000000000001 0 0 0.8991009 0.09990010000000001 0.0009990000000000001 0 0 0.8991009 0.09990010000000001 0.0009990000000000001 0 0 0.8991009 0.09990010000000001 0.0009990000000000001 0 0 0.8991009 0.09990010000000001 0.0009990000000000001 0 0 0.8991009 0.09990010000000001 0.0009990000000000001 0 0 0.7418397600000001 0.24727992 0.009891200000000001 0.0009891200000000002 0 0.8991009 0.09990010000000001 0.0009990000000000001 0 0 0.8991009 0.09990010000000001 0.0009990000000000001 0 0 0.8991009 0.09990010000000001 0.0009990000000000001 0 0 0.8991009 0.09990010000000001 0.0009990000000000001 0 0 0.8991009 0.09990010000000001 0.0009990000000000001 0 0 0.8991009 0.09990010000000001 0.0009990000000000001 0 0 0.8991009 0.09990010000000001 0.0009990000000000001 0 0 0.8991009 0.09990010000000001 0.0009990000000000001 0 0 0.8991009 0.09990010000000001 0.0009990000000000001 0 0 0.8991009 0.09990010000000001 0.0009990000000000001 0 0 0.8991009 0.09990010000000001 0.0009990000000000001 0 0 0.8991009 0.09990010000000001 0.0009990000000000001 0 0 0.8991009 0.09990010000000001 0.0009990000000000001 0 0 0.8991009 0.09990010000000001 0.0009990000000000001 0 0 0.8991009 0.09990010000000001 0.0009990000000000001 0 0 0.8991009 0.09990010000000001 0.0009990000000000001 0 0 0.8991009 0.09990010000000001 0.0009990000000000001 0 0 0.86820082 0.07322176 0.05230126 0.00523013 0.00104603 0.8991009 0.09990010000000001 0.0009990000000000001 0 0 0.65 0.15 0.1 0.05 0.05 0.59 0.15 0.12 0.07000000000000001 0.07000000000000001 0.6800000000000001 0.1 0.1 0.07000000000000001 0.05 0.8991009 0.09990010000000001 0.0009990000000000001 0 0 0.6800000000000001 0.1 0.1 0.07000000000000001 0.05 0.7 0.05 0.05 0.1 0.1 0.0009990000000000001 0.009990010000000001 0.04995005 0.1998002 0.73926074 0.6800000000000001 0.1 0.1 0.07000000000000001 0.05 0.8991009 0.09990010000000001 0.0009990000000000001 0 0 0.8991009 0.09990010000000001 0.0009990000000000001 0 0 0.8991009 0.09990010000000001 0.0009990000000000001 0 0 0.6800000000000001 0.1 0.1 0.07000000000000001 0.05 0.8991009 0.09990010000000001 0.0009990000000000001 0 0 0.8991009 0.09990010000000001 0.0009990000000000001 0 0 0.8991009 0.09990010000000001 0.0009990000000000001 0 0 0.8991009 0.09990010000000001 0.0009990000000000001 0 0 0.8991009 0.09990010000000001 0.0009990000000000001 0 0 0.8991009 0.09990010000000001 0.0009990000000000001 0 0 0.8991009 0.09990010000000001 0.0009990000000000001 0 0 0.6800000000000001 0.1 0.1 0.07000000000000001 0.05</probabilities>
		</cpt>
		<cpt id="F10">
			<state id="Absent" />
			<state id="Present" />
			<parents>Fault</parents>
			<probabilities>1 0 1 0 1 0 1 0 1 0 1 0 1 0 1 0 1 0 1 0 1 0 1 0 1 0 1 0 1 0 1 0 1 0 1 0 1 0 1 0 1 0 1 0 1 0 1 0 1 0 1 0 1 0 1 0 1 0 1 0 1 0 1 0 1 0 1 0 1 0 1 0 1 0 1 0 1 0 1 0 1 0 1 0 1 0 1 0 1 0 1 0 1 0 1 0 1 0 1 0 1 0 1 0 1 0 1 0 1 0 1 0 0 1 1 0 1 0 1 0 1 0 1 0 1 0</probabilities>
		</cpt>
		<cpt id="F55">
			<state id="Absent" />
			<state id="Rare___3_" />
			<state id="Present__3_20_" />
			<state id="Many___20_" />
			<parents>Fault</parents>
			<probabilities>0.999 0.001 0 0 0.999 0.001 0 0 0.999 0.001 0 0 0.999 0.001 0 0 0.999 0.001 0 0 0.999 0.001 0 0 0.999 0.001 0 0 0.999 0.001 0 0 0.999 0.001 0 0 0.999 0.001 0 0 0.98 0.02 0 0 0.999 0.001 0 0 0.999 0.001 0 0 0.999 0.001 0 0 0.999 0.001 0 0 0.999 0.001 0 0 0.999 0.001 0 0 0.999 0.001 0 0 0.999 0.001 0 0 0.999 0.001 0 0 0.999 0.001 0 0 0.999 0.001 0 0 0.999 0.001 0 0 0.98 0.02 0 0 0.999 0.001 0 0 0.8 0.19 0.01 0 0.8 0.19 0.01 0 0.3 0.49 0.2 0.01 0.3 0.49 0.2 0.01 0.3 0.49 0.2 0.01 0.39 0.5 0.1 0.01 0.6993007000000001 0.2497502500000001 0.04995005000000002 0.0009990000000000003 0.7 0.15 0.1 0.05 0.7 0.15 0.1 0.05 0.999 0.001 0 0 0.999 0.001 0 0 0.999 0.001 0 0 0.999 0.001 0 0 0.999 0.001 0 0 0.999 0.001 0 0 0.999 0.001 0 0 0.999 0.001 0 0 0.999 0.001 0 0 0.999 0.001 0 0 0.9 0.09 0.01 0 0.999 0.001 0 0 0.999 0.001 0 0 0.9 0.09 0.01 0 0.999 0.001 0 0 0.999 0.001 0 0 0.999 0.001 0 0 0.999 0.001 0 0 0.79 0.15 0.05 0.01 0.999 0.001 0 0 0.999 0.001 0 0 0.999 0.001 0 0 0.999 0.001 0 0 0.999 0.001 0 0 0.999 0.001 0 0 0.999 0.001 0 0 0.999 0.001 0 0 0.999 0.001 0 0 0.999 0.001 0 0</probabilities>
		</cpt>
		<cpt id="F52">
			<state id="Absent" />
			<state id="Rare___3_" />
			<state id="Present__3_20_" />
			<state id="Many___20_" />
			<parents>Fault F55</parents>
			<probabilities>0.9999 0.0001 0 0 0.9999 0.0001 0 0 0.25 0.25 0.25 0.25 0.25 0.25 0.25 0.25 0.98 0.02 0 0 0.98 0.02 0 0 0.97 0.03 0 0 0.25 0.25 0.25 0.25 0.9999 0.0001 0 0 0.9999 0.0001 0 0 0.25 0.25 0.25 0.25 0.25 0.25 0.25 0.25 0.9999 0.0001 0 0 0.9999 0.0001 0 0 0.25 0.25 0.25 0.25 0.25 0.25 0.25 0.25 0.9999 0.0001 0 0 0.9999 0.0001 0 0 0.25 0.25 0.25 0.25 0.25 0.25 0.25 0.25 0.9999 0.0001 0 0 0.9999 0.0001 0 0 0.25 0.25 0.25 0.25 0.25 0.25 0.25 0.25 0.98 0.02 0 0 0.98 0.02 0 0 0.25 0.25 0.25 0.25 0.25 0.25 0.25 0.25 0.98 0.02 0 0 0.98 0.02 0 0 0.25 0.25 0.25 0.25 0.25 0.25 0.25 0.25 0.9999 0.0001 0 0 0.9999 0.0001 0 0 0.25 0.25 0.25 0.25 0.25 0.25 0.25 0.25 0.9999 0.0001 0 0 0.9999 0.0001 0 0 0.25 0.25 0.25 0.25 0.25 0.25 0.25 0.25 0.9490509500000002 0.04995005000000002 0.0009990000000000003 0 0.9490509500000002 0.04995005000000002 0.0009990000000000003 0 0.25 0.25 0.25 0.25 0.25 0.25 0.25 0.25 0.9999 0.0001 0 0 0.9999 0.0001 0 0 0.25 0.25 0.25 0.25 0.25 0.25 0.25 0.25 0.9999 0.0001 0 0 0.9999 0.0001 0 0 0.25 0.25 0.25 0.25 0.25 0.25 0.25 0.25 0.9999 0.0001 0 0 0.9999 0.0001 0 0 0.25 0.25 0.25 0.25 0.25 0.25 0.25 0.25 0.99 0.01 0 0 0.99 0.01 0 0 0.25 0.25 0.25 0.25 0.25 0.25 0.25 0.25 0.99 0.01 0 0 0.99 0.01 0 0 0.25 0.25 0.25 0.25 0.25 0.25 0.25 0.25 0.9999 0.0001 0 0 0.9999 0.0001 0 0 0.25 0.25 0.25 0.25 0.25 0.25 0.25 0.25 0.9999 0.0001 0 0 0.9999 0.0001 0 0 0.25 0.25 0.25 0.25 0.25 0.25 0.25 0.25 0.9999 0.0001 0 0 0.9999 0.0001 0 0 0.25 0.25 0.25 0.25 0.25 0.25 0.25 0.25 0.9999 0.0001 0 0 0.9999 0.0001 0 0 0.25 0.25 0.25 0.25 0.25 0.25 0.25 0.25 0.9999 0.0001 0 0 0.9999 0.0001 0 0 0.25 0.25 0.25 0.25 0.25 0.25 0.25 0.25 0.9999 0.0001 0 0 0.9999 0.0001 0 0 0.25 0.25 0.25 0.25 0.25 0.25 0.25 0.25 0.9999 0.0001 0 0 0.9999 0.0001 0 0 0.25 0.25 0.25 0.25 0.25 0.25 0.25 0.25 0.9490509500000002 0.04995005000000002 0.0009990000000000003 0 0.9490509500000002 0.04995005000000002 0.0009990000000000003 0 0.25 0.25 0.25 0.25 0.25 0.25 0.25 0.25 0.9999 0.0001 0 0 0.9999 0.0001 0 0 0.25 0.25 0.25 0.25 0.25 0.25 0.25 0.25 0 0.99 0.01 0 0 0.99 0.01 0 0 0.99 0.01 0 0.25 0.25 0.25 0.25 0 0.99 0.01 0 0 0.99 0.01 0 0 0.99 0.01 0 0.25 0.25 0.25 0.25 0.0009990000000000001 0.04995005 0.84915085 0.09990010000000001 0.0009990000000000001 0.04995005 0.84915085 0.09990010000000001 0 0.02 0.83 0.15 0 0.0009990000000000001 0.7492507000000001 0.2497503 0.0009990000000000001 0.04995005 0.84915085 0.09990010000000001 0.0009990000000000001 0.04995005 0.84915085 0.09990010000000001 0 0.02 0.83 0.15 0 0.0009990000000000001 0.7492507000000001 0.2497503 0.0009990000000000001 0.04995005 0.84915085 0.09990010000000001 0.0009990000000000001 0.04995005 0.84915085 0.09990010000000001 0 0.02 0.83 0.15 0 0.0009990000000000001 0.7492507000000001 0.2497503 0 0.05 0.8 0.15 0 0.05 0.8 0.15 0 0.01 0.84 0.15 0 0 0.65 0.35 0.0009990000000000001 0.1998002 0.6993007 0.09990010000000001 0.0009990000000000001 0.1998002 0.6993007 0.09990010000000001 0 0.13 0.75 0.12 0 0.05 0.8 0.15 0 0.05 0.15 0.8 0 0.05 0.15 0.8 0 0.01923077 0.14423077 0.83653846 0 0.0009990000000000001 0.09990010000000001 0.8991009 0 0.01 0.2 0.79 0 0.01 0.2 0.79 0 0 0.15 0.85 0 9.999e-005 0.049995 0.9499050100000001 0.9999 0.0001 0 0 0.9999 0.0001 0 0 0.25 0.25 0.25 0.25 0.25 0.25 0.25 0.25 0.9999 0.0001 0 0 0.9999 0.0001 0 0 0.25 0.25 0.25 0.25 0.25 0.25 0.25 0.25 0.9999 0.0001 0 0 0.9999 0.0001 0 0 0.25 0.25 0.25 0.25 0.25 0.25 0.25 0.25 0.9999 0.0001 0 0 0.9999 0.0001 0 0 0.25 0.25 0.25 0.25 0.25 0.25 0.25 0.25 0.9999 0.0001 0 0 0.9999 0.0001 0 0 0.25 0.25 0.25 0.25 0.25 0.25 0.25 0.25 0.9999 0.0001 0 0 0.9999 0.0001 0 0 0.25 0.25 0.25 0.25 0.25 0.25 0.25 0.25 0.9999 0.0001 0 0 0.9999 0.0001 0 0 0.25 0.25 0.25 0.25 0.25 0.25 0.25 0.25 0.9999 0.0001 0 0 0.9999 0.0001 0 0 0.25 0.25 0.25 0.25 0.25 0.25 0.25 0.25 0.9999 0.0001 0 0 0.9999 0.0001 0 0 0.25 0.25 0.25 0.25 0.25 0.25 0.25 0.25 0.98 0.02 0 0 0.98 0.02 0 0 0.97 0.03 0 0 0.25 0.25 0.25 0.25 0.91 0.05 0.03 0.01 0.91 0.05 0.03 0.01 0.86 0.07000000000000001 0.05 0.02 0.25 0.25 0.25 0.25 0.98 0.02 0 0 0.98 0.02 0 0 0.97 0.03 0 0 0.25 0.25 0.25 0.25 0.98 0.02 0 0 0.98 0.02 0 0 0.97 0.03 0 0 0.25 0.25 0.25 0.25 0.98 0.02 0 0 0.98 0.02 0 0 0.97 0.03 0 0 0.25 0.25 0.25 0.25 0.9999 0.0001 0 0 0.9999 0.0001 0 0 0.25 0.25 0.25 0.25 0.25 0.25 0.25 0.25 0.9999 0.0001 0 0 0.9999 0.0001 0 0 0.25 0.25 0.25 0.25 0.25 0.25 0.25 0.25 0.98 0.02 0 0 0.98 0.02 0 0 0.97 0.03 0 0 0.25 0.25 0.25 0.25 0.98 0.02 0 0 0.98 0.02 0 0 0.97 0.03 0 0 0.25 0.25 0.25 0.25 0.2 0.3999999999999999 0.2999999999999999 0.09999999999999998 0.2 0.3999999999999999 0.2999999999999999 0.09999999999999998 0.1 0.3 0.4 0.2 0 0.0009990000000000001 0.5994006 0.3996004 0.9999 0.0001 0 0 0.9999 0.0001 0 0 0.25 0.25 0.25 0.25 0.25 0.25 0.25 0.25 0.9999 0.0001 0 0 0.9999 0.0001 0 0 0.25 0.25 0.25 0.25 0.25 0.25 0.25 0.25 0.9999 0.0001 0 0 0.9999 0.0001 0 0 0.25 0.25 0.25 0.25 0.25 0.25 0.25 0.25 0.9999 0.0001 0 0 0.9999 0.0001 0 0 0.25 0.25 0.25 0.25 0.25 0.25 0.25 0.25 0.9999 0.0001 0 0 0.9999 0.0001 0 0 0.25 0.25 0.25 0.25 0.25 0.25 0.25 0.25 0.8 0.15 0.04 0.01 0.8 0.15 0.04 0.01 0.6 0.25 0.1 0.05 0.25 0.25 0.25 0.25 0.9999 0.0001 0 0 0.9999 0.0001 0 0 0.25 0.25 0.25 0.25 0.25 0.25 0.25 0.25 0.9999 0.0001 0 0 0.9999 0.0001 0 0 0.25 0.25 0.25 0.25 0.25 0.25 0.25 0.25 0.9999 0.0001 0 0 0.9999 0.0001 0 0 0.25 0.25 0.25 0.25 0.25 0.25 0.25 0.25 0.98 0.02 0 0 0.98 0.02 0 0 0.97 0.03 0 0 0.25 0.25 0.25 0.25</probabilities>
		</cpt>
		<cpt id="F11">
			<state id="Absent" />
			<state id="Rare___3_" />
			<state id="Present__3_15_" />
			<state id="Many__16_50_" />
			<state id="Striking___50_" />
			<parents>Fault F52</parents>
			<probabilities>1 0 0 0 0 1 0 0 0 0 0.2 0.2 0.2 0.2 0.2 0.2 0.2 0.2 0.2 0.2 1 0 0 0 0 1 0 0 0 0 0.2 0.2 0.2 0.2 0.2 0.2 0.2 0.2 0.2 0.2 1 0 0 0 0 1 0 0 0 0 0.2 0.2 0.2 0.2 0.2 0.2 0.2 0.2 0.2 0.2 1 0 0 0 0 1 0 0 0 0 0.2 0.2 0.2 0.2 0.2 0.2 0.2 0.2 0.2 0.2 1 0 0 0 0 1 0 0 0 0 0.2 0.2 0.2 0.2 0.2 0.2 0.2 0.2 0.2 0.2 1 0 0 0 0 1 0 0 0 0 0.2 0.2 0.2 0.2 0.2 0.2 0.2 0.2 0.2 0.2 1 0 0 0 0 1 0 0 0 0 0.999 0.001 0 0 0 0.2 0.2 0.2 0.2 0.2 1 0 0 0 0 1 0 0 0 0 0.999 0.001 0 0 0 0.2 0.2 0.2 0.2 0.2 1 0 0 0 0 1 0 0 0 0 0.2 0.2 0.2 0.2 0.2 0.2 0.2 0.2 0.2 0.2 1 0 0 0 0 1 0 0 0 0 0.2 0.2 0.2 0.2 0.2 0.2 0.2 0.2 0.2 0.2 0.999 0.001 0 0 0 0.999 0.001 0 0 0 0.98088279 0.01901712 0.00010009 0 0 0.2 0.2 0.2 0.2 0.2 1 0 0 0 0 1 0 0 0 0 0.2 0.2 0.2 0.2 0.2 0.2 0.2 0.2 0.2 0.2 1 0 0 0 0 1 0 0 0 0 0.2 0.2 0.2 0.2 0.2 0.2 0.2 0.2 0.2 0.2 1 0 0 0 0 1 0 0 0 0 0.2 0.2 0.2 0.2 0.2 0.2 0.2 0.2 0.2 0.2 1 0 0 0 0 1 0 0 0 0 0.2 0.2 0.2 0.2 0.2 0.2 0.2 0.2 0.2 0.2 1 0 0 0 0 1 0 0 0 0 0.2 0.2 0.2 0.2 0.2 0.2 0.2 0.2 0.2 0.2 1 0 0 0 0 1 0 0 0 0 0.2 0.2 0.2 0.2 0.2 0.2 0.2 0.2 0.2 0.2 1 0 0 0 0 1 0 0 0 0 0.2 0.2 0.2 0.2 0.2 0.2 0.2 0.2 0.2 0.2 1 0 0 0 0 1 0 0 0 0 0.2 0.2 0.2 0.2 0.2 0.2 0.2 0.2 0.2 0.2 1 0 0 0 0 1 0 0 0 0 0.2 0.2 0.2 0.2 0.2 0.2 0.2 0.2 0.2 0.2 1 0 0 0 0 1 0 0 0 0 0.2 0.2 0.2 0.2 0.2 0.2 0.2 0.2 0.2 0.2 1 0 0 0 0 1 0 0 0 0 0.2 0.2 0.2 0.2 0.2 0.2 0.2 0.2 0.2 0.2 1 0 0 0 0 1 0 0 0 0 0.2 0.2 0.2 0.2 0.2 0.2 0.2 0.2 0.2 0.2 0.999 0.001 0 0 0 0.999 0.001 0 0 0 0.98088279 0.01901712 0.00010009 0 0 0.2 0.2 0.2 0.2 0.2 1 0 0 0 0 1 0 0 0 0 0.2 0.2 0.2 0.2 0.2 0.2 0.2 0.2 0.2 0.2 0.2 0.2 0.2 0.2 0.2 0 1 0 0 0 0 1 0 0 0 0.2 0.2 0.2 0.2 0.2 0.2 0.2 0.2 0.2 0.2 0 1 0 0 0 0 1 0 0 0 0.2 0.2 0.2 0.2 0.2 0 0.15 0.58 0.25 0.02 0 0.15 0.58 0.25 0.02 0 0.01 0.6 0.35 0.04 0 0.01 0.44 0.45 0.1 0 0.15 0.58 0.25 0.02 0 0.15 0.58 0.25 0.02 0 0.01 0.6 0.35 0.04 0 0.01 0.44 0.45 0.1 0 0.15 0.58 0.25 0.02 0 0.15 0.58 0.25 0.02 0 0.01 0.6 0.35 0.04 0 0.01 0.44 0.45 0.1 0.2 0.2 0.2 0.2 0.2 0 0 0.63 0.35 0.02 0 0.01 0.69 0.3 0 0 0.01 0.59 0.4 0 0 0.3 0.6000000000000001 0.1 0 0 0.25 0.6 0.15 0 0 0.01 0.79 0.2 0 0 0.01 0.6900000000000001 0.2000000000000001 0.1 0.2 0.2 0.2 0.2 0.2 0 0.02 0.62 0.35 0.01 0 0.02 0.62 0.35 0.01 0 0 0.53 0.45 0.02 0.2 0.2 0.2 0.2 0.2 0 0 0.01 0.59 0.4 0 0 0.01 0.4 0.59 0 0 0.00990099 0.24752475 0.74257426 1 0 0 0 0 1 0 0 0 0 0.2 0.2 0.2 0.2 0.2 0.2 0.2 0.2 0.2 0.2 1 0 0 0 0 1 0 0 0 0 0.2 0.2 0.2 0.2 0.2 0.2 0.2 0.2 0.2 0.2 1 0 0 0 0 1 0 0 0 0 0.2 0.2 0.2 0.2 0.2 0.2 0.2 0.2 0.2 0.2 1 0 0 0 0 1 0 0 0 0 0.2 0.2 0.2 0.2 0.2 0.2 0.2 0.2 0.2 0.2 1 0 0 0 0 1 0 0 0 0 0.2 0.2 0.2 0.2 0.2 0.2 0.2 0.2 0.2 0.2 1 0 0 0 0 1 0 0 0 0 0.2 0.2 0.2 0.2 0.2 0.2 0.2 0.2 0.2 0.2 1 0 0 0 0 1 0 0 0 0 0.2 0.2 0.2 0.2 0.2 0.2 0.2 0.2 0.2 0.2 1 0 0 0 0 1 0 0 0 0 0.2 0.2 0.2 0.2 0.2 0.2 0.2 0.2 0.2 0.2 1 0 0 0 0 1 0 0 0 0 0.2 0.2 0.2 0.2 0.2 0.2 0.2 0.2 0.2 0.2 0.999 0.001 0 0 0 0.999 0.001 0 0 0 0.99 0.01 0 0 0 0.2 0.2 0.2 0.2 0.2 0.97 0.02 0.01 0 0 0.97 0.02 0.01 0 0 0.95 0.04 0.01 0 0 0.2 0.2 0.2 0.2 0.2 0.999 0.001 0 0 0 0.999 0.001 0 0 0 0.99 0.01 0 0 0 0.2 0.2 0.2 0.2 0.2 0.999 0.001 0 0 0 0.999 0.001 0 0 0 0.99 0.01 0 0 0 0.2 0.2 0.2 0.2 0.2 0.999 0.001 0 0 0 0.999 0.001 0 0 0 0.99 0.01 0 0 0 0.2 0.2 0.2 0.2 0.2 1 0 0 0 0 1 0 0 0 0 0.2 0.2 0.2 0.2 0.2 0.2 0.2 0.2 0.2 0.2 1 0 0 0 0 1 0 0 0 0 0.2 0.2 0.2 0.2 0.2 0.2 0.2 0.2 0.2 0.2 0.999 0.001 0 0 0 0.999 0.001 0 0 0 0.99 0.01 0 0 0 0.2 0.2 0.2 0.2 0.2 0.999 0.001 0 0 0 0.999 0.001 0 0 0 0.99 0.01 0 0 0 0.2 0.2 0.2 0.2 0.2 0.8 0.1 0.1 0 0 0.8 0.1 0.1 0 0 0.01010101 0.90909091 0.05050505 0.03030303 0 0.0009990000000000001 0.1998002 0.6993007 0.07992008 0.01998002 1 0 0 0 0 1 0 0 0 0 0.2 0.2 0.2 0.2 0.2 0.2 0.2 0.2 0.2 0.2 1 0 0 0 0 1 0 0 0 0 0.2 0.2 0.2 0.2 0.2 0.2 0.2 0.2 0.2 0.2 1 0 0 0 0 1 0 0 0 0 0.2 0.2 0.2 0.2 0.2 0.2 0.2 0.2 0.2 0.2 0.999001 0.0009990000000000001 0 0 0 0.999001 0.0009990000000000001 0 0 0 0.2 0.2 0.2 0.2 0.2 0.2 0.2 0.2 0.2 0.2 0.999001 0.0009990000000000001 0 0 0 0.999001 0.0009990000000000001 0 0 0 0.2 0.2 0.2 0.2 0.2 0.2 0.2 0.2 0.2 0.2 0.95 0.04 0.01 0 0 0.95 0.04 0.01 0 0 0.95 0.04 0.01 0 0 0.2 0.2 0.2 0.2 0.2 1 0 0 0 0 1 0 0 0 0 0.2 0.2 0.2 0.2 0.2 0.2 0.2 0.2 0.2 0.2 1 0 0 0 0 1 0 0 0 0 0.2 0.2 0.2 0.2 0.2 0.2 0.2 0.2 0.2 0.2 1 0 0 0 0 1 0 0 0 0 0.2 0.2 0.2 0.2 0.2 0.2 0.2 0.2 0.2 0.2 0.999 0.001 0 0 0 0.999 0.001 0 0 0 0.99 0.01 0 0 0 0.2 0.2 0.2 0.2 0.2</probabilities>
		</cpt>
		<cpt id="F12">
			<state id="Absent" />
			<state id="Present" />
			<parents>Fault</parents>
			<probabilities>1 0 1 0 1 0 1 0 1 0 1 0 1 0 1 0 1 0 1 0 1 0 1 0 1 0 1 0 1 0 1 0 1 0 1 0 1 0 1 0 1 0 1 0 1 0 1 0 1 0 1 0 1 0 1 0 1 0 1 0 1 0 1 0 1 0 1 0 1 0 1 0 1 0 1 0 1 0 1 0 1 0 1 0 1 0 1 0 1 0 1 0 1 0 1 0 1 0 1 0 1 0 1 0 1 0 1 0 1 0 0.25 0.75 1 0 1 0 1 0 0.99 0.01 1 0 1 0 1 0</probabilities>
		</cpt>
		<cpt id="F13">
			<state id="Absent" />
			<state id="Present__1_2_" />
			<state id="Prominent___2_" />
			<parents>Fault F8</parents>
			<probabilities>1 0 0 0.9999900000000001 1e-005 0 0.999900009999 9.999000099989999e-005 0 1 0 0 0.9999900000000001 1e-005 0 0.999900009999 9.999000099989999e-005 0 1 0 0 0.9999900000000001 1e-005 0 0.999900009999 9.999000099989999e-005 0 1 0 0 0.9999900000000001 1e-005 0 0.999900009999 9.999000099989999e-005 0 1 0 0 0.9999900000000001 1e-005 0 0.999900009999 9.999000099989999e-005 0 1 0 0 0.9999900000000001 1e-005 0 0.999900009999 9.999000099989999e-005 0 1 0 0 0.9999900000000001 1e-005 0 0.999900009999 9.999000099989999e-005 0 1 0 0 0.9999900000000001 1e-005 0 0.999900009999 9.999000099989999e-005 0 1 0 0 0.9999900000000001 1e-005 0 0.999900009999 9.999000099989999e-005 0 1 0 0 0.9999900000000001 1e-005 0 0.999900009999 9.999000099989999e-005 0 1 0 0 0.9999900000000001 1e-005 0 0.999900009999 9.999000099989999e-005 0 1 0 0 0.9999900000000001 1e-005 0 0.999900009999 9.999000099989999e-005 0 1 0 0 0.9999900000000001 1e-005 0 0.999900009999 9.999000099989999e-005 0 1 0 0 0.9999900000000001 1e-005 0 0.999900009999 9.999000099989999e-005 0 1 0 0 0.9999900000000001 1e-005 0 0.999900009999 9.999000099989999e-005 0 1 0 0 0.9999900000000001 1e-005 0 0.999900009999 9.999000099989999e-005 0 1 0 0 0.9999900000000001 1e-005 0 0.999900009999 9.999000099989999e-005 0 1 0 0 0.9999900000000001 1e-005 0 0.999900009999 9.999000099989999e-005 0 0.5 0.4 0.1 1e-005 0.499995 0.499995 0 0.3 0.7 1 0 0 0.9999900000000001 1e-005 0 0.999900009999 9.999000099989999e-005 0 1 0 0 0.9999900000000001 1e-005 0 0.999900009999 9.999000099989999e-005 0 1 0 0 0.9999900000000001 1e-005 0 0.999900009999 9.999000099989999e-005 0 1 0 0 0.9999900000000001 1e-005 0 0.999900009999 9.999000099989999e-005 0 1 0 0 0.9999900000000001 1e-005 0 0.999900009999 9.999000099989999e-005 0 1 0 0 0.9999900000000001 1e-005 0 0.999900009999 9.999000099989999e-005 0 1 0 0 0.9999900000000001 1e-005 0 0.999900009999 9.999000099989999e-005 0 1 0 0 0.9999900000000001 1e-005 0 0.999900009999 9.999000099989999e-005 0 1 0 0 0.9999900000000001 1e-005 0 0.999900009999 9.999000099989999e-005 0 1 0 0 0.9999900000000001 1e-005 0 0.999900009999 9.999000099989999e-005 0 1 0 0 0.9999900000000001 1e-005 0 0.999900009999 9.999000099989999e-005 0 1 0 0 0.9999900000000001 1e-005 0 0.999900009999 9.999000099989999e-005 0 1 0 0 0.9999900000000001 1e-005 0 0.999900009999 9.999000099989999e-005 0 1 0 0 0.9999900000000001 1e-005 0 0.999900009999 9.999000099989999e-005 0 1 0 0 0.9999900000000001 1e-005 0 0.999900009999 9.999000099989999e-005 0 1 0 0 0.9999900000000001 1e-005 0 0.999900009999 9.999000099989999e-005 0 1 0 0 0.9999900000000001 1e-005 0 0.999900009999 9.999000099989999e-005 0 1 0 0 0.9999900000000001 1e-005 0 0.999900009999 9.999000099989999e-005 0 1 0 0 0.9999900000000001 1e-005 0 0.999900009999 9.999000099989999e-005 0 1 0 0 0.9999900000000001 1e-005 0 0.999900009999 9.999000099989999e-005 0 1 0 0 0.9999900000000001 1e-005 0 0.999900009999 9.999000099989999e-005 0 1 0 0 0.9999900000000001 1e-005 0 0.999900009999 9.999000099989999e-005 0 1 0 0 0.9999900000000001 1e-005 0 0.999900009999 9.999000099989999e-005 0 1 0 0 0.9999900000000001 1e-005 0 0.999900009999 9.999000099989999e-005 0 1 0 0 0.9999900000000001 1e-005 0 0.999900009999 9.999000099989999e-005 0 1 0 0 0.9999900000000001 1e-005 0 0.999900009999 9.999000099989999e-005 0 1 0 0 0.9999900000000001 1e-005 0 0.999900009999 9.999000099989999e-005 0 1 0 0 0.9999900000000001 1e-005 0 0.999900009999 9.999000099989999e-005 0 1 0 0 0.9999900000000001 1e-005 0 0.999900009999 9.999000099989999e-005 0 1 0 0 0.9999900000000001 1e-005 0 0.999900009999 9.999000099989999e-005 0 1 0 0 0.9999900000000001 1e-005 0 0.999900009999 9.999000099989999e-005 0 1 0 0 0.9999900000000001 1e-005 0 0.999900009999 9.999000099989999e-005 0 1 0 0 0.9999900000000001 1e-005 0 0.999900009999 9.999000099989999e-005 0 1 0 0 0.9999900000000001 1e-005 0 0.999900009999 9.999000099989999e-005 0 1 0 0 0.9999900000000001 1e-005 0 0.999900009999 9.999000099989999e-005 0 1 0 0 0.9999900000000001 1e-005 0 0.999900009999 9.999000099989999e-005 0 1 0 0 0.9999900000000001 1e-005 0 0.999900009999 9.999000099989999e-005 0 1 0 0 0.9999900000000001 1e-005 0 0.999900009999 9.999000099989999e-005 0 1 0 0 0.9999900000000001 1e-005 0 0.999900009999 9.999000099989999e-005 0 1 0 0 0.9999900000000001 1e-005 0 0.999900009999 9.999000099989999e-005 0 1 0 0 0.9999900000000001 1e-005 0 0.999900009999 9.999000099989999e-005 0 1 0 0 0.9999900000000001 1e-005 0 0.999900009999 9.999000099989999e-005 0 1 0 0 0.9999900000000001 1e-005 0 0.999900009999 9.999000099989999e-005 0 1 0 0 0.9999900000000001 1e-005 0 0.999900009999 9.999000099989999e-005 0</probabilities>
		</cpt>
		<cpt id="F14">
			<state id="Absent" />
			<state id="Present" />
			<parents>Fault</parents>
			<probabilities>1 0 1 0 1 0 0.9999 0.0001 1 0 1 0 1 0 1 0 0.9999 0.0001 0.6 0.4 1 0 1 0 1 0 1 0 1 0 0.9999 0.0001 1 0 1 0 1 0 1 0 1 0 1 0 1 0 1 0 1 0 1 0 1 0 0.99 0.01 0.99 0.01 0.99 0.01 0.99 0.01 0.99 0.01 1 0 1 0 1 0 1 0 1 0 1 0 1 0 1 0 1 0 1 0 1 0 1 0 1 0 1 0 1 0 1 0 1 0 1 0 1 0 1 0 1 0 1 0 1 0 1 0 1 0 1 0 1 0 1 0 0.9999 0.0001 1 0 1 0</probabilities>
		</cpt>
		<cpt id="F15">
			<state id="Absent" />
			<state id="Present" />
			<parents>Fault</parents>
			<probabilities>1 0 1 0 1 0 1 0 1 0 1 0 1 0 1 0 1 0 1 0 1 0 1 0 1 0 1 0 1 0 1 0 1 0 1 0 1 0 1 0 1 0 1 0 1 0 1 0 1 0 1 0 1 0 1 0 1 0 1 0 1 0 1 0 1 0 1 0 1 0 1 0 1 0 1 0 1 0 1 0 1 0 1 0 1 0 1 0 1 0 1 0 1 0 1 0 1 0 1 0 1 0 1 0 1 0 1 0 0.5 0.5 1 0 1 0 1 0 1 0 1 0 1 0 1 0 1 0</probabilities>
		</cpt>
		<cpt id="F16">
			<state id="Absent" />
			<state id="Present" />
			<state id="Prominent" />
			<parents>Fault F15</parents>
			<probabilities>0.5999 0.4 0.0001 0.3333333333333334 0.3333333333333334 0.3333333333333334 0.2 0.75 0.05 0.3333333333333334 0.3333333333333334 0.3333333333333334 0.5999 0.4 0.0001 0.3333333333333334 0.3333333333333334 0.3333333333333334 0.05 0.9 0.05 0.3333333333333334 0.3333333333333334 0.3333333333333334 0.5999 0.4 0.0001 0.3333333333333334 0.3333333333333334 0.3333333333333334 0.5999 0.4 0.0001 0.3333333333333334 0.3333333333333334 0.3333333333333334 0.5999 0.4 0.0001 0.3333333333333334 0.3333333333333334 0.3333333333333334 0.5999 0.4 0.0001 0.3333333333333334 0.3333333333333334 0.3333333333333334 0.05 0.9 0.05 0.3333333333333334 0.3333333333333334 0.3333333333333334 0.01 0.2 0.79 0.3333333333333334 0.3333333333333334 0.3333333333333334 0.15 0.83 0.02 0.3333333333333334 0.3333333333333334 0.3333333333333334 0.5999 0.4 0.0001 0.3333333333333334 0.3333333333333334 0.3333333333333334 0.5999 0.4 0.0001 0.3333333333333334 0.3333333333333334 0.3333333333333334 0.5999 0.4 0.0001 0.3333333333333334 0.3333333333333334 0.3333333333333334 0.5999 0.4 0.0001 0.3333333333333334 0.3333333333333334 0.3333333333333334 0.05 0.9 0.05 0.3333333333333334 0.3333333333333334 0.3333333333333334 0.5999 0.4 0.0001 0.3333333333333334 0.3333333333333334 0.3333333333333334 0.5999 0.4 0.0001 0.3333333333333334 0.3333333333333334 0.3333333333333334 0.5999 0.4 0.0001 0.3333333333333334 0.3333333333333334 0.3333333333333334 0.5999 0.4 0.0001 0.3333333333333334 0.3333333333333334 0.3333333333333334 0.15 0.83 0.02 0.3333333333333334 0.3333333333333334 0.3333333333333334 0.5999 0.4 0.0001 0.3333333333333334 0.3333333333333334 0.3333333333333334 0.5999 0.4 0.0001 0.3333333333333334 0.3333333333333334 0.3333333333333334 0.15 0.83 0.02 0.3333333333333334 0.3333333333333334 0.3333333333333334 0.5999 0.4 0.0001 0.3333333333333334 0.3333333333333334 0.3333333333333334 0.5999 0.4 0.0001 0.3333333333333334 0.3333333333333334 0.3333333333333334 0.5999 0.4 0.0001 0.3333333333333334 0.3333333333333334 0.3333333333333334 0.1 0.75 0.15 0.3333333333333334 0.3333333333333334 0.3333333333333334 0.1 0.75 0.15 0.3333333333333334 0.3333333333333334 0.3333333333333334 0.1 0.75 0.15 0.3333333333333334 0.3333333333333334 0.3333333333333334 0.1 0.75 0.15 0.3333333333333334 0.3333333333333334 0.3333333333333334 0.1 0.75 0.15 0.3333333333333334 0.3333333333333334 0.3333333333333334 0.5999 0.4 0.0001 0.3333333333333334 0.3333333333333334 0.3333333333333334 0.5999 0.4 0.0001 0.3333333333333334 0.3333333333333334 0.3333333333333334 0.5999 0.4 0.0001 0.3333333333333334 0.3333333333333334 0.3333333333333334 0.5999 0.4 0.0001 0.3333333333333334 0.3333333333333334 0.3333333333333334 0.5999 0.4 0.0001 0.3333333333333334 0.3333333333333334 0.3333333333333334 0.5999 0.4 0.0001 0.3333333333333334 0.3333333333333334 0.3333333333333334 0.5999 0.4 0.0001 0.3333333333333334 0.3333333333333334 0.3333333333333334 0.5999 0.4 0.0001 0.3333333333333334 0.3333333333333334 0.3333333333333334 0.5999 0.4 0.0001 0.3333333333333334 0.3333333333333334 0.3333333333333334 0.5999 0.4 0.0001 0.3333333333333334 0.3333333333333334 0.3333333333333334 0.5999 0.4 0.0001 0.3333333333333334 0.3333333333333334 0.3333333333333334 0.5999 0.4 0.0001 0.3333333333333334 0.3333333333333334 0.3333333333333334 0.5999 0.4 0.0001 0.3333333333333334 0.3333333333333334 0.3333333333333334 0.35 0.63 0.02 0.3333333333333334 0.3333333333333334 0.3333333333333334 0.2 0.75 0.05 0.3333333333333334 0.3333333333333334 0.3333333333333334 0.5999 0.4 0.0001 0.3333333333333334 0.3333333333333334 0.3333333333333334 0.5999 0.4 0.0001 0.3333333333333334 0.3333333333333334 0.3333333333333334 0.5999 0.4 0.0001 0.3333333333333334 0.3333333333333334 0.3333333333333334 0.5999 0.4 0.0001 0.3333333333333334 0.3333333333333334 0.3333333333333334 0.5999 0.4 0.0001 0.3333333333333334 0.3333333333333334 0.3333333333333334 0.5999 0.4 0.0001 0.3333333333333334 0.3333333333333334 0.3333333333333334 0.5999 0.4 0.0001 0.3333333333333334 0.3333333333333334 0.3333333333333334 0.9499050100000001 0.049995 9.999e-005 0.01 0.89 0.1 0.5999 0.4 0.0001 0.3333333333333334 0.3333333333333334 0.3333333333333334 0.5999 0.4 0.0001 0.3333333333333334 0.3333333333333334 0.3333333333333334 0.5999 0.4 0.0001 0.3333333333333334 0.3333333333333334 0.3333333333333334 0.5999 0.4 0.0001 0.3333333333333334 0.3333333333333334 0.3333333333333334 0.5999 0.4 0.0001 0.3333333333333334 0.3333333333333334 0.3333333333333334 0.05 0.9 0.05 0.3333333333333334 0.3333333333333334 0.3333333333333334 0.5999 0.4 0.0001 0.3333333333333334 0.3333333333333334 0.3333333333333334 0.35 0.63 0.02 0.3333333333333334 0.3333333333333334 0.3333333333333334</probabilities>
		</cpt>
		<cpt id="F17">
			<state id="Absent" />
			<state id="Present___5__" />
			<state id="Prominent___5__" />
			<parents>Fault</parents>
			<probabilities>0.65 0.34 0.01 0.7 0.28 0.02 0.98 0.02 0 0.05 0.85 0.1 0.85 0.14 0.01 0.98 0.02 0 0.98 0.02 0 0.98 0.02 0 0 0.7 0.3 0.98 0.02 0 0.05 0.85 0.1 0.05 0.9 0.05 0.00990099 0.79207921 0.1980198 0.98 0.02 0 0.89 0.1 0.01 0.72 0.25 0.03 0.98 0.02 0 0 0.02 0.98 0.98 0.02 0 0.98 0.02 0 0 0.7 0.3 0 0.6 0.4 0.05 0.9 0.05 0.05 0.85 0.1 0.00990099 0.79207921 0.1980198 0.02 0.6 0.38 0.02 0.6 0.38 0.95 0.049 0.001 0.95 0.049 0.001 0.95 0.049 0.001 0.2 0.3 0.5 0.3 0.6000000000000001 0.1 0.98 0.02 0 0.98 0.02 0 0.98 0.02 0 0.98 0.02 0 0.98 0.02 0 0.98 0.02 0 0.98 0.02 0 0.98 0.02 0 0.98 0.02 0 0.98 0.02 0 0.98 0.02 0 0.98 0.02 0 0.98 0.02 0 0.7 0.28 0.02 0.89 0.1 0.01 0.98 0.02 0 0.98 0.02 0 0.98 0.02 0 0.98 0.02 0 0.98 0.02 0 0.98 0.02 0 0.85 0.14 0.01 0.98 0.02 0 0.98 0.02 0 0.98 0.02 0 0.98 0.02 0 0.98 0.02 0 0.98 0.02 0 0.3 0.6000000000000001 0.1 0.65 0.34 0.01 0.98 0.02 0</probabilities>
		</cpt>
		<cpt id="F18">
			<state id="NA" />
			<state id="No" />
			<state id="Some" />
			<state id="Many" />
			<parents>Fault F97 F17</parents>
			<probabilities>1 0 0 0 1 0 0 0 1 0 0 0 1 0 0 0 0 0.999 0.001 0 0 0.998 0.002 0 1 0 0 0 1 0 0 0 1 0 0 0 1 0 0 0 0 0.999 0.001 0 0 0.998 0.002 0 1 0 0 0 1 0 0 0 1 0 0 0 1 0 0 0 0 0.999 0.001 0 0.25 0.25 0.25 0.25 1 0 0 0 1 0 0 0 1 0 0 0 1 0 0 0 0 0.99497992 0.00502008 0 0 0.991 0.008999999999999999 0 1 0 0 0 1 0 0 0 1 0 0 0 1 0 0 0 0 0.999 0.001 0 0 0.998 0.002 0 1 0 0 0 1 0 0 0 1 0 0 0 1 0 0 0 0 0.999 0.001 0 0.25 0.25 0.25 0.25 1 0 0 0 1 0 0 0 1 0 0 0 1 0 0 0 0 0.999 0.001 0 0.25 0.25 0.25 0.25 1 0 0 0 1 0 0 0 1 0 0 0 1 0 0 0 0 0.999 0.001 0 0.25 0.25 0.25 0.25 1 0 0 0 1 0 0 0 1 0 0 0 1 0 0 0 0 0.8991009 0.09990010000000001 0.0009990000000000001 0 0.84577115 0.14925373 0.00497512 1 0 0 0 1 0 0 0 1 0 0 0 1 0 0 0 0 0.999 0.001 0 0.25 0.25 0.25 0.25 1 0 0 0 1 0 0 0 1 0 0 0 1 0 0 0 0 0.99497992 0.00502008 0 0 0.991 0.008999999999999999 0 1 0 0 0 1 0 0 0 1 0 0 0 1 0 0 0 0 0.999 0.001 0 0 0.998 0.002 0 1 0 0 0 1 0 0 0 1 0 0 0 1 0 0 0 0 0.999 0.001 0 0 0.998 0.002 0 1 0 0 0 1 0 0 0 1 0 0 0 1 0 0 0 0 0.999 0.001 0 0.25 0.25 0.25 0.25 1 0 0 0 1 0 0 0 1 0 0 0 1 0 0 0 0 0.99497992 0.00502008 0 0 0.991 0.008999999999999999 0 1 0 0 0 1 0 0 0 1 0 0 0 1 0 0 0 0 0.99497992 0.00502008 0 0 0.991 0.008999999999999999 0 1 0 0 0 1 0 0 0 1 0 0 0 1 0 0 0 0 0.999 0.001 0 0.25 0.25 0.25 0.25 1 0 0 0 1 0 0 0 1 0 0 0 1 0 0 0 0 0.999 0.001 0 0.25 0.25 0.25 0.25 1 0 0 0 1 0 0 0 1 0 0 0 1 0 0 0 0 0.999 0.001 0 0.25 0.25 0.25 0.25 1 0 0 0 1 0 0 0 1 0 0 0 1 0 0 0 0 0.999 0.001 0 0.25 0.25 0.25 0.25 1 0 0 0 1 0 0 0 1 0 0 0 1 0 0 0 0 0.8991009 0.09990010000000001 0.0009990000000000001 0 0.84577115 0.14925373 0.00497512 1 0 0 0 1 0 0 0 1 0 0 0 1 0 0 0 0 0 0.8 0.2 0 0 0.4 0.6 1 0 0 0 1 0 0 0 1 0 0 0 1 0 0 0 0 0.999 0.001 0 0 0.998 0.002 0 1 0 0 0 1 0 0 0 1 0 0 0 1 0 0 0 0 0.99497992 0.00502008 0 0 0.991 0.008999999999999999 0 1 0 0 0 1 0 0 0 1 0 0 0 1 0 0 0 0 0.999 0.001 0 0 0.998 0.002 0 1 0 0 0 1 0 0 0 1 0 0 0 1 0 0 0 0 0.99497992 0.00502008 0 0 0.991 0.008999999999999999 0 1 0 0 0 1 0 0 0 1 0 0 0 1 0 0 0 0 0.99497992 0.00502008 0 0 0.991 0.008999999999999999 0 1 0 0 0 1 0 0 0 1 0 0 0 1 0 0 0 0 0.999 0.001 0 0 0.998 0.002 0 1 0 0 0 1 0 0 0 1 0 0 0 1 0 0 0 0 0.999 0.001 0 0 0.998 0.002 0 1 0 0 0 1 0 0 0 1 0 0 0 1 0 0 0 0 0.999 0.001 0 0 0.998 0.002 0 1 0 0 0 1 0 0 0 1 0 0 0 1 0 0 0 0 0.99 0.01 0 0 0.98 0.02 0 1 0 0 0 1 0 0 0 1 0 0 0 1 0 0 0 0 0.999 0.001 0 0 0.998 0.002 0 1 0 0 0 1 0 0 0 1 0 0 0 1 0 0 0 0 0.999 0.001 0 0.25 0.25 0.25 0.25 1 0 0 0 1 0 0 0 1 0 0 0 1 0 0 0 0 0.999 0.001 0 0.25 0.25 0.25 0.25 1 0 0 0 1 0 0 0 1 0 0 0 1 0 0 0 0 0.999 0.001 0 0.25 0.25 0.25 0.25 1 0 0 0 1 0 0 0 1 0 0 0 1 0 0 0 0 0.999 0.001 0 0.25 0.25 0.25 0.25 1 0 0 0 1 0 0 0 1 0 0 0 1 0 0 0 0 0.999 0.001 0 0.25 0.25 0.25 0.25 1 0 0 0 1 0 0 0 1 0 0 0 1 0 0 0 0 0.999 0.001 0 0.25 0.25 0.25 0.25 1 0 0 0 1 0 0 0 1 0 0 0 1 0 0 0 0 0.999 0.001 0 0.25 0.25 0.25 0.25 1 0 0 0 1 0 0 0 1 0 0 0 1 0 0 0 0 0.999 0.001 0 0.25 0.25 0.25 0.25 1 0 0 0 1 0 0 0 1 0 0 0 1 0 0 0 0 0.999 0.001 0 0.25 0.25 0.25 0.25 1 0 0 0 1 0 0 0 1 0 0 0 1 0 0 0 0 0.999 0.001 0 0.25 0.25 0.25 0.25 1 0 0 0 1 0 0 0 1 0 0 0 1 0 0 0 0 0.999 0.001 0 0.25 0.25 0.25 0.25 1 0 0 0 1 0 0 0 1 0 0 0 1 0 0 0 0 0.999 0.001 0 0.25 0.25 0.25 0.25 1 0 0 0 1 0 0 0 1 0 0 0 1 0 0 0 0 0.999 0.001 0 0.25 0.25 0.25 0.25 1 0 0 0 1 0 0 0 1 0 0 0 1 0 0 0 0 0.999 0.001 0 0 0.998 0.002 0 1 0 0 0 1 0 0 0 1 0 0 0 1 0 0 0 0 0.999 0.001 0 0 0.998 0.002 0 1 0 0 0 1 0 0 0 1 0 0 0 1 0 0 0 0 0.999 0.001 0 0.25 0.25 0.25 0.25 1 0 0 0 1 0 0 0 1 0 0 0 1 0 0 0 0 0.999 0.001 0 0.25 0.25 0.25 0.25 1 0 0 0 1 0 0 0 1 0 0 0 1 0 0 0 0 0.999 0.001 0 0.25 0.25 0.25 0.25 1 0 0 0 1 0 0 0 1 0 0 0 1 0 0 0 0 0.999 0.001 0 0.25 0.25 0.25 0.25 1 0 0 0 1 0 0 0 1 0 0 0 1 0 0 0 0 0.999 0.001 0 0.25 0.25 0.25 0.25 1 0 0 0 1 0 0 0 1 0 0 0 1 0 0 0 0 0.999 0.001 0 0.25 0.25 0.25 0.25 1 0 0 0 1 0 0 0 1 0 0 0 1 0 0 0 0 0.999 0.001 0 0 0.998 0.002 0 1 0 0 0 1 0 0 0 1 0 0 0 1 0 0 0 0 0.999 0.001 0 0.25 0.25 0.25 0.25 1 0 0 0 1 0 0 0 1 0 0 0 1 0 0 0 0 0.999 0.001 0 0.25 0.25 0.25 0.25 1 0 0 0 1 0 0 0 1 0 0 0 1 0 0 0 0 0.999 0.001 0 0.25 0.25 0.25 0.25 1 0 0 0 1 0 0 0 1 0 0 0 1 0 0 0 0 0.999 0.001 0 0.25 0.25 0.25 0.25 1 0 0 0 1 0 0 0 1 0 0 0 1 0 0 0 0 0.999 0.001 0 0.25 0.25 0.25 0.25 1 0 0 0 1 0 0 0 1 0 0 0 1 0 0 0 0 0.999 0.001 0 0.25 0.25 0.25 0.25 1 0 0 0 1 0 0 0 1 0 0 0 1 0 0 0 0 0.999 0.001 0 0 0.998 0.002 0 1 0 0 0 1 0 0 0 1 0 0 0 1 0 0 0 0 0.999 0.001 0 0 0.998 0.002 0 1 0 0 0 1 0 0 0 1 0 0 0 1 0 0 0 0 0.999 0.001 0 0.25 0.25 0.25 0.25</probabilities>
		</cpt>
		<cpt id="F19">
			<state id="Absent" />
			<state id="Present___5__" />
			<state id="Prominent___5__" />
			<parents>Fault</parents>
			<probabilities>0.375 0.59375 0.03125 0.02 0.85 0.13 0.99 0.01 0 0.02 0.9300000000000001 0.05 0.09090909 0.86363636 0.04545455 0.99 0.01 0 0.99 0.01 0 0.99 0.01 0 0.02 0.96 0.02 0.99 0.01 0 0.8991009 0.09990010000000001 0.0009990000000000001 0.01 0.89 0.1 0.01 0.8 0.19 0.99 0.01 0 0.04761905 0.9047619 0.04761905 0.04761905 0.9047619 0.04761905 0.99 0.01 0 0.99 0.01 0 0.99 0.01 0 0.99 0.01 0 0.02 0.96 0.02 0.8991009 0.09990010000000001 0.0009990000000000001 0.01 0.89 0.1 0.8991009 0.09990010000000001 0.0009990000000000001 0.01 0.8 0.19 0.02 0.7 0.28 0.02 0.7 0.28 0.7992008 0.1998002 0.0009990000000000001 0.7992008 0.1998002 0.0009990000000000001 0.7992008 0.1998002 0.0009990000000000001 0.1 0.89 0.01 0.2 0.79 0.01 0.99 0.01 0 0.99 0.01 0 0.99 0.01 0 0.99 0.01 0 0.99 0.01 0 0.99 0.01 0 0.99 0.01 0 0.99 0.01 0 0.99 0.01 0 0.99 0.01 0 0.99 0.01 0 0.99 0.01 0 0.99 0.01 0 0.02 0.8 0.18 0.02 0.85 0.13 0.99 0.01 0 0.99 0.01 0 0.99 0.01 0 0.99 0.01 0 0.99 0.01 0 0.99 0.01 0 0.09090909 0.86363636 0.04545455 0.99 0.01 0 0.99 0.01 0 0.99 0.01 0 0.99 0.01 0 0.99 0.01 0 0.99 0.01 0 0.2 0.79 0.01 0.375 0.59375 0.03125 0.02 0.8 0.18</probabilities>
		</cpt>
		<cpt id="F41">
			<state id="Absent" />
			<state id="Present" />
			<parents>Fault</parents>
			<probabilities>0.99 0.01 0 1 0 1 0.02 0.98 0.99 0.01 0.99 0.01 0.99 0.01 0.55 0.45 0.3 0.7 0.99 0.01 0 1 0.99 0.01 0.99 0.01 0.99 0.01 0.1 0.9 0.02 0.98 0.99 0.01 0.99 0.01 0.99 0.01 0.99 0.01 0.99 0.01 0.99 0.01 0.99 0.01 0 1 0.99 0.01 0.3 0.7 0.3 0.7 0.3 0.7 0.3 0.7 0.3 0.7 0.3 0.7 0.3 0.7 0.3 0.7 0.3 0.7 0.12 0.88 0.1 0.9 0.05 0.95 0.8 0.2 0.05 0.95 0.9 0.1 0.99 0.01 0.3 0.7 0 1 0 1 0 1 0 1 0 1 0 1 0.999 0.001 0.8 0.2 0 1 0 1 0 1 0.65 0.35 0.2 0.8 0.99 0.01 0.99 0.01 0.99 0.01 0.95 0.05 0.99 0.01 0.99 0.01 0.99 0.01 0 1</probabilities>
		</cpt>
		<cpt id="F44">
			<state id="Absent" />
			<state id="Present" />
			<parents>Fault</parents>
			<probabilities>0.95 0.05 0 1 0 1 0.05 0.95 0.95 0.05 0.95 0.05 0.95 0.05 0.1 0.9 0.1 0.9 0.95 0.05 0.01 0.99 0.95 0.05 0.95 0.05 0.95 0.05 0.1 0.9 0.1 0.9 0.95 0.05 0.95 0.05 0.95 0.05 0.95 0.05 0.95 0.05 0.95 0.05 0.95 0.05 0.01 0.99 0.95 0.05 0.2 0.8 0.2 0.8 0.2 0.8 0.2 0.8 0.2 0.8 0.2 0.8 0.2 0.8 0.2 0.8 0.2 0.8 0.2 0.8 0.1 0.9 0.1 0.9 0 1 0.1 0.9 0.7 0.3 0.95 0.05 0.2 0.8 0.3 0.7 0.7 0.3 0.8 0.2 0.1 0.9 0.1 0.9 0.1 0.9 0 1 0 1 0.95 0.05 0.9 0.1 0.3 0.7 0.05 0.95 0.25 0.75 0.95 0.05 0.95 0.05 0.95 0.05 0.2 0.8 0.95 0.05 0.95 0.05 0.95 0.05 0.1 0.9</probabilities>
		</cpt>
		<cpt id="F20">
			<state id="Absent" />
			<state id="Rare__1_10__" />
			<state id="Present__11_50__" />
			<state id="Many__51_70__" />
			<parents>Fault F41 F44</parents>
			<probabilities>1 0 0 0 1 0 0 0 0.9999 0.0001 0 0 0.9995000000000001 0.0005 0 0 1 0 0 0 1 0 0 0 0.9999 0.0001 0 0 0.9995000000000001 0.0005 0 0 1 0 0 0 1 0 0 0 0.9999 0.0001 0 0 0.9995000000000001 0.0005 0 0 1 0 0 0 1 0 0 0 0.99 0.01 0 0 0.99 0.01 0 0 1 0 0 0 1 0 0 0 0.9999 0.0001 0 0 0.9995000000000001 0.0005 0 0 1 0 0 0 1 0 0 0 0.9999 0.0001 0 0 0.9995000000000001 0.0005 0 0 1 0 0 0 1 0 0 0 0.9999 0.0001 0 0 0.9995000000000001 0.0005 0 0 1 0 0 0 1 0 0 0 0.9999 0.0001 0 0 0.9995000000000001 0.0005 0 0 1 0 0 0 1 0 0 0 0.9999 0.0001 0 0 0.9995000000000001 0.0005 0 0 1 0 0 0 1 0 0 0 0.9999 0.0001 0 0 0.9995000000000001 0.0005 0 0 0.25 0.25 0.25 0.25 0.25 0.25 0.25 0.25 0.99 0.01 0 0 0.99 0.01 0 0 1 0 0 0 1 0 0 0 0.9999 0.0001 0 0 0.9995000000000001 0.0005 0 0 1 0 0 0 1 0 0 0 0.9999 0.0001 0 0 0.9995000000000001 0.0005 0 0 1 0 0 0 1 0 0 0 0.9999 0.0001 0 0 0.9995000000000001 0.0005 0 0 1 0 0 0 1 0 0 0 0.99 0.01 0 0 0.99 0.01 0 0 1 0 0 0 1 0 0 0 0.99 0.01 0 0 0.99 0.01 0 0 1 0 0 0 1 0 0 0 0.9999 0.0001 0 0 0.9995000000000001 0.0005 0 0 1 0 0 0 1 0 0 0 0.9999 0.0001 0 0 0.9995000000000001 0.0005 0 0 1 0 0 0 1 0 0 0 0.9999 0.0001 0 0 0.9995000000000001 0.0005 0 0 1 0 0 0 1 0 0 0 0.9999 0.0001 0 0 0.9995000000000001 0.0005 0 0 1 0 0 0 1 0 0 0 0.9999 0.0001 0 0 0.9995000000000001 0.0005 0 0 1 0 0 0 1 0 0 0 0.9999 0.0001 0 0 0.9995000000000001 0.0005 0 0 1 0 0 0 1 0 0 0 0.9999 0.0001 0 0 0.9995000000000001 0.0005 0 0 0.25 0.25 0.25 0.25 0.25 0.25 0.25 0.25 0.99 0.01 0 0 0.99 0.01 0 0 1 0 0 0 1 0 0 0 0.9999 0.0001 0 0 0.9995000000000001 0.0005 0 0 1 0 0 0 1 0 0 0 0.9999 0.0001 0 0 0.9995000000000001 0.0005 0 0 1 0 0 0 1 0 0 0 0.9999 0.0001 0 0 0.9995000000000001 0.0005 0 0 1 0 0 0 1 0 0 0 0.9999 0.0001 0 0 0.9995000000000001 0.0005 0 0 1 0 0 0 1 0 0 0 0.9999 0.0001 0 0 0.9995000000000001 0.0005 0 0 1 0 0 0 1 0 0 0 0.9999 0.0001 0 0 0.9995000000000001 0.0005 0 0 1 0 0 0 1 0 0 0 0.9999 0.0001 0 0 0.9995000000000001 0.0005 0 0 1 0 0 0 1 0 0 0 0.9999 0.0001 0 0 0.9995000000000001 0.0005 0 0 1 0 0 0 1 0 0 0 0.9999 0.0001 0 0 0.9995000000000001 0.0005 0 0 1 0 0 0 1 0 0 0 0.9999 0.0001 0 0 0.9995000000000001 0.0005 0 0 1 0 0 0 1 0 0 0 0.9999 0.0001 0 0 0.9995000000000001 0.0005 0 0 1 0 0 0 1 0 0 0 0.9999 0.0001 0 0 0.9995000000000001 0.0005 0 0 1 0 0 0 1 0 0 0 0.9999 0.0001 0 0 0.9995000000000001 0.0005 0 0 1 0 0 0 1 0 0 0 0.9999 0.0001 0 0 0.9995000000000001 0.0005 0 0 1 0 0 0 1 0 0 0 0.9999 0.0001 0 0 0.9995000000000001 0.0005 0 0 1 0 0 0 1 0 0 0 0.9999 0.0001 0 0 0.9995000000000001 0.0005 0 0 1 0 0 0 1 0 0 0 0.9999 0.0001 0 0 0.9995000000000001 0.0005 0 0 1 0 0 0 1 0 0 0 0.9999 0.0001 0 0 0.9995000000000001 0.0005 0 0 1 0 0 0 1 0 0 0 0.9999 0.0001 0 0 0.9995000000000001 0.0005 0 0 0.25 0.25 0.25 0.25 0.25 0.25 0.25 0.25 0.95 0.05 0 0 0.95 0.05 0 0 0.25 0.25 0.25 0.25 0.25 0.25 0.25 0.25 0.9995000000000001 0.0005 0 0 0.9995000000000001 0.0005 0 0 0.25 0.25 0.25 0.25 0.25 0.25 0.25 0.25 0.93532339 0.04975124 0.009950250000000001 0.00497512 0.91542289 0.05970149 0.0199005 0.00497512 0.25 0.25 0.25 0.25 0.25 0.25 0.25 0.25 0 0.05 0.5 0.45 0 0.05 0.45 0.5 1 0 0 0 1 0 0 0 0.9999 0.0001 0 0 0.9995000000000001 0.0005 0 0 1 0 0 0 1 0 0 0 0.9999 0.0001 0 0 0.9995000000000001 0.0005 0 0 1 0 0 0 1 0 0 0 0.9999 0.0001 0 0 0.9995000000000001 0.0005 0 0 0.25 0.25 0.25 0.25 0.25 0.25 0.25 0.25 0.93990601 0.049995 0.009998999999999999 9.999e-005 0.93990601 0.049995 0.009998999999999999 9.999e-005 0.25 0.25 0.25 0.25 0.25 0.25 0.25 0.25 0.9995000000000001 0.0005 0 0 0.9995000000000001 0.0005 0 0 1 0 0 0 1 0 0 0 0.9999 0.0001 0 0 0.9995000000000001 0.0005 0 0 1 0 0 0 1 0 0 0 0.9999 0.0001 0 0 0.9995000000000001 0.0005 0 0 1 0 0 0 1 0 0 0 0.9999 0.0001 0 0 0.9995000000000001 0.0005 0 0 1 0 0 0 1 0 0 0 0.9999 0.0001 0 0 0.9995000000000001 0.0005 0 0 1 0 0 0 1 0 0 0 0.9999 0.0001 0 0 0.9995000000000001 0.0005 0 0 1 0 0 0 1 0 0 0 0.9999 0.0001 0 0 0.9995000000000001 0.0005 0 0 1 0 0 0 1 0 0 0 0.9999 0.0001 0 0 0.9995000000000001 0.0005 0 0 1 0 0 0 1 0 0 0 0.9999 0.0001 0 0 0.9995000000000001 0.0005 0 0 1 0 0 0 1 0 0 0 0.9999 0.0001 0 0 0.9995000000000001 0.0005 0 0 1 0 0 0 1 0 0 0 0.9999 0.0001 0 0 0.9995000000000001 0.0005 0 0 0.25 0.25 0.25 0.25 0.25 0.25 0.25 0.25 0.92 0.05 0.01 0.02 0.9 0.06 0.02 0.02</probabilities>
		</cpt>
		<cpt id="F90">
			<state id="Absent" />
			<state id="Slight___10_" />
			<state id="Moderate__10_20_" />
			<state id="Marked___20_" />
			<parents>Fault</parents>
